tree
version=v4
num_class=1
num_tree_per_iteration=1
label_index=0
max_feature_idx=16
objective=regression
feature_names=Column_0 Column_1 Column_2 Column_3 Column_4 Column_5 Column_6 Column_7 Column_8 Column_9 Column_10 Column_11 Column_12 Column_13 Column_14 Column_15 Column_16
feature_infos=[-1.5911104679107666:2.2590186595916748] [-8.6766729354858398:13.455896377563477] [-1.2596950531005859:6.3683462142944336] [-3.9755187034606934:11.117409706115723] [-3.2487156391143799:1.3557448387145996] [-1.5908609628677368:2.2601261138916016] [-8.5173969268798828:13.55772590637207] [-1.2524083852767944:6.4303054809570312] [-3.974632740020752:11.129999160766602] [-3.2475080490112305:1.3522710800170898] [-5.5180864334106445:16.250968933105469] [-8.3943958282470703:57.118621826171875] [-16.875274658203125:14.300630569458008] [-0.52206051349639893:4.7028017044067383] [-54.627685546875:14.61004638671875] [-9.5953531265258789:12.434652328491211] [-5.3309807777404785:7.4624223709106445]
tree_sizes=7316 7390 7397 7379 7401 7393 7378 7378 7400 7383 7376 7386 7375 7371 7385 7377 7402 7383 7413 7407 7381 7373 7364 7396 7409 7387 7393 7385 7387

Tree=0
num_leaves=64
num_cat=0
split_feature=16 16 3 10 12 16 10 16 16 15 15 15 16 15 3 15 14 13 4 6 11 12 16 1 0 2 11 16 1 15 1 15 15 12 16 11 12 12 2 16 3 11 11 10 6 1 16 15 3 13 15 12 4 1 15 16 16 1 12 15 1 10 0
split_gain=0.0038318 0.00106596 0.000769265 0.000330091 0.000275086 0.000154543 0.000143546 0.000154345 0.000126139 0.000112461 0.000105087 7.56914e-05 6.96655e-05 5.53807e-05 5.28488e-05 5.08275e-05 3.95217e-05 3.90353e-05 3.70842e-05 3.63985e-05 3.16664e-05 3.14335e-05 2.6928e-05 2.49013e-05 2.40511e-05 2.30358e-05 1.93802e-05 1.712e-05 1.56874e-05 3.36092e-05 1.52954e-05 1.51342e-05 1.41724e-05 1.36097e-05 1.2795e-05 1.27425e-05 1.80673e-05 1.24517e-05 1.32204e-05 1.01344e-05 9.77055e-06 9.52746e-06 9.33035e-06 8.46502e-06 7.82781e-06 7.76273e-06 7.74623e-06 7.13882e-06 6.79959e-06 6.72503e-06 6.54307e-06 6.09986e-06 5.83629e-06 5.59815e-06 5.29995e-06 5.196e-06 4.87712e-06 7.35554e-06 4.54073e-06 4.35597e-06 4.1755e-06 4.06008e-06 3.87224e-06
threshold=1.2320906519889834 -0.69834855198860157 6.8687057495117196 0.13122756779193881 2.7994054555892949 0.34819751977920538 0.11451093479990961 -2.0794883966445918 2.4224321842193608 -0.47868995368480677 0.62829354405403148 -0.82106143236160267 -0.23438487946987149 -0.9378504455089568 1.032156825065613 -0.8560490310192107 0.011390797328203918 -0.30065497756004328 -2.3504040241241451 -2.392562627792358 -0.03195978328585624 1.2452811002731325 -1.372517943382263 -2.4190047979354854 -0.92785406112670887 -0.24710534512996671 -0.029857508838176724 0.77980247139930736 0.0049533608835190543 0.77477708458900463 -1.8722851872444151 -0.41740250587463373 1.6049140691757204 -0.069847933948039995 0.023799006827175621 0.010602788999676706 0.29209451377391821 1.0000000180025095e-35 0.59003409743309032 0.077426411211490645 0.58100730180740368 -0.022831513546407219 0.014552193693816664 -0.21273536235094068 0.59496358036994945 -0.29800055921077723 -1.4889174699783323 0.98449504375457775 -0.040993895381689065 -0.30065497756004328 0.38460931181907659 0.097677733749151244 0.2225749269127846 0.25690540671348577 1.6410802006721499 0.40278719365596777 0.75884759426116954 0.29259534180164343 -0.50351920723915089 -0.52787229418754567 0.11151152476668359 -0.50673010945320118 0.8021180033683778
decision_type=2 2 2 2 2 2 2 2 2 2 2 2 2 2 2 2 2 2 2 2 2 2 2 2 2 2 2 2 2 2 2 2 2 2 2 2 2 2 2 2 2 2 2 2 2 2 2 2 2 2 2 2 2 2 2 2 2 2 2 2 2 2 2
left_child=1 6 4 12 8 19 7 11 21 -10 23 -1 15 17 56 24 -13 33 -8 -5 -11 28 35 -7 -3 -20 -18 44 29 45 -17 34 39 40 53 36 41 38 50 -21 -9 -15 -26 -36 -25 52 -35 -37 59 -30 -24 -51 -2 -14 61 -33 57 -12 -32 -29 -58 -39 -50
right_child=2 3 -4 5 -6 10 18 13 9 20 14 16 31 22 -16 30 26 -19 25 32 -22 -23 37 27 42 -27 -28 48 49 -31 58 55 -34 46 43 47 -38 54 -40 -41 -42 -43 -44 -45 -46 -47 -48 -49 62 51 -52 -53 -54 -55 -56 -57 60 -59 -60 -61 -62 -63 -64
leaf_value=-2.575503697520139e-05 5.6736469930511646e-05 -3.4623006617489241e-06 0.00014746677496011923 6.8685459661686126e-06 0.0001256249528754239 2.4914949418902768e-05 4.6987360401680975e-05 -1.5053501507174486e-06 6.900670107578103e-05 9.2664967855984396e-05 5.3837585977455177e-05 2.015287155310406e-05 2.6064350152480734e-05 -7.1492088668930961e-06 9.3118455347109436e-05 1.0255791835981857e-05 6.9125775976325486e-06 2.236822153265314e-05 3.6561334283311865e-05 3.8626473564556919e-05 0.0001170566917392923 8.4487795193109174e-05 1.666068790525238e-05 4.3543093025386825e-05 2.5157099527975064e-05 1.2384700709302243e-05 -1.5571618532556984e-05 4.2074371952884295e-05 6.1982058605520316e-05 8.1155507453309778e-05 2.431306229856637e-05 3.5258879529986135e-05 5.5885376536898406e-05 1.4009205078335919e-05 2.3853268664910564e-05 1.3394118876594109e-05 1.6270952731701422e-05 2.0897252929621292e-05 7.7758426849467444e-06 4.2903397779912855e-05 -1.7508282056068066e-05 1.0585286763422525e-05 7.6027484365244998e-06 3.6427178067413694e-05 5.4049864519181175e-05 6.294937491681844e-05 -7.2425485831737428e-07 2.9014739198331997e-05 5.3845211332649938e-05 7.8429947106791232e-05 2.9769049384874092e-05 6.692538575917169e-05 4.5565182851853493e-05 1.2817317247620887e-05 3.4014431351463266e-05 4.6129547331947246e-05 7.2585621403784044e-05 6.6495968952201006e-05 3.0296077456109976e-05 5.3298014390623557e-05 6.0763487761428321e-05 2.8993048561826284e-05 6.2065988255410946e-05
leaf_weight=383.18510627746582 221.74905395507812 180.44810152053833 490.60565185546875 80.798198223114014 293.64265394210815 111.55250120162964 293.6911473274231 259.69530153274536 390.20415496826172 278.22250318527222 277.39895033836365 210.19130516052246 202.2810001373291 204.57124924659729 168.7762496471405 109.80449819564819 159.17635154724121 228.61659812927246 183.0075511932373 3614.3742967844009 255.03330278396606 209.79510259628296 199.53405022621155 1046.8605543375015 221.63660144805908 213.43265199661255 240.85940313339233 142.82545065879822 208.55715107917786 141.31975173950195 377.10970211029053 6307.7560052871704 148.90975046157837 162.78800106048584 186.92754983901978 167.80759787559509 311.44010138511658 355.29744505882263 231.82359743118286 2245.6587849855423 150.74650073051453 120.2474000453949 114.95600032806396 471.42500162124634 213.41105246543884 184.64255142211914 197.38075160980225 129.65584969520569 312.72995376586914 235.53730297088623 182.05590033531189 225.55045127868652 247.30375218391418 131.66390037536621 186.88074994087219 111.87480020523071 164.36140084266663 195.74200129508972 1993.5450558662415 219.00820016860962 136.8983519077301 274.52415060997009 264.30869770050049
leaf_count=39 25 15 19 9 23 10 15 36 33 21 39 22 40 29 19 18 20 29 25 799 23 26 44 212 32 22 33 17 28 17 70 1512 15 19 26 27 45 69 29 450 15 20 24 50 44 28 27 15 56 30 30 27 31 21 21 17 26 27 400 35 20 37 47
internal_value=3.96515e-05 3.28429e-05 8.95759e-05 3.80825e-05 7.97536e-05 4.49047e-05 1.23343e-05 8.978e-06 7.45688e-05 8.94046e-05 5.37018e-05 -8.33817e-06 3.19588e-05 1.4093e-05 6.77661e-05 2.55267e-05 2.59855e-06 4.22434e-06 3.35213e-05 4.02043e-05 0.00010433 6.63869e-05 1.82646e-05 4.7961e-05 1.12659e-05 2.35453e-05 -6.62504e-06 4.913e-05 6.37941e-05 5.90451e-05 2.84993e-05 3.456e-05 4.06525e-05 -1.15839e-06 2.88134e-05 1.16601e-05 7.66631e-06 2.25767e-05 1.71933e-05 4.02655e-05 -7.38288e-06 -5.83924e-07 1.91618e-05 3.2857e-05 4.53223e-05 5.42651e-05 5.93493e-06 2.02027e-05 5.42412e-05 6.94324e-05 2.29147e-05 7.28023e-05 5.08465e-05 2.08415e-05 2.66201e-05 3.54483e-05 6.22407e-05 5.90745e-05 2.93443e-05 4.88677e-05 6.72134e-05 2.4426e-05 5.76107e-05
internal_weight=28181.8 24799.7 3382.16 19753 2891.56 9343.61 5046.61 4356.48 2597.92 923.46 3253.87 993.412 10409.4 3363.07 943.177 2997.5 610.227 999.227 690.131 6089.74 533.256 1674.46 2363.84 2310.7 517.041 396.44 400.036 2199.14 1464.66 795.015 2480.46 7411.93 6008.94 770.611 992.297 933.722 636.259 1430.12 613.414 5860.03 410.442 324.819 336.593 658.353 1260.27 653.695 360.169 297.463 938.872 669.645 381.59 461.088 469.053 333.945 816.702 6419.63 774.401 473.141 2370.65 361.834 301.26 629.822 577.039
internal_count=5049 4718 331 4050 312 1825 668 606 289 77 552 114 2225 492 131 559 75 126 62 1273 44 212 366 421 71 47 53 411 186 101 488 1666 1264 97 137 136 94 230 103 1249 51 49 56 76 256 84 46 42 155 85 74 57 56 61 127 1529 112 66 470 52 46 106 103
is_linear=0
shrinkage=1


Tree=1
num_leaves=64
num_cat=0
split_feature=16 16 3 16 15 12 2 16 15 16 14 3 3 10 10 10 6 16 3 14 1 1 10 10 6 16 15 12 12 3 10 10 0 12 3 6 16 16 16 1 11 12 15 10 16 15 15 1 11 6 13 6 16 15 0 13 1 1 3 11 10 15 16
split_gain=0.00346068 0.00115094 0.000428916 0.000413512 0.000236542 0.000178676 0.00012402 0.000130858 0.000117089 0.000116115 0.000109393 0.00011093 9.8754e-05 6.80837e-05 5.37832e-05 4.98354e-05 4.97785e-05 4.70413e-05 4.24683e-05 3.76482e-05 3.23019e-05 3.09022e-05 2.92621e-05 2.45204e-05 2.28218e-05 1.83878e-05 1.81579e-05 1.74142e-05 1.68906e-05 1.40447e-05 1.35958e-05 1.31945e-05 1.31005e-05 1.25376e-05 1.08329e-05 1.06762e-05 1.06739e-05 1.03513e-05 1.00092e-05 8.92807e-06 8.55503e-06 1.29537e-05 1.13602e-05 8.45597e-06 8.12219e-06 7.70126e-06 7.11089e-06 7.10484e-06 6.96659e-06 6.93285e-06 6.91368e-06 6.88769e-06 6.04237e-06 7.50467e-06 5.84295e-06 5.62526e-06 5.38378e-06 7.37212e-06 4.9219e-06 4.32041e-06 5.48947e-06 6.53127e-06 3.95019e-06
threshold=1.8518199324607851 -0.23438487946987149 6.8687057495117196 0.42201338708400732 -0.90057703852653492 2.7994054555892949 3.4799066781997685 -2.0794883966445918 0.61711412668228161 -1.372517943382263 -0.0071393982507288447 1.2000319957733157 1.7356383204460146 0.11451093479990961 0.041829915717244155 0.10251856222748758 0.42200383543968206 1.2320906519889834 0.62250825762748729 -0.01955801714211702 -3.101750254631042 -0.29800055921077723 -0.17276079207658765 0.24697209149599078 -2.6553655862808223 -2.0794883966445918 -0.43728263676166529 -1.6062272191047666 0.33536224067211157 -0.066830307245254503 0.14758079499006274 0.17992384731769565 0.67626723647117626 1.3144317269325259 -0.040993895381689065 -0.2482742369174957 1.052253842353821 0.17455963045358661 -1.2092754840850828 -2.0060912966728206 -0.02136186137795448 0.037269970402121551 0.052238682284951217 -0.10298701748251914 -0.57668519020080555 -0.82106143236160267 0.13660798966884616 0.28697821497917181 -0.15415994822978971 0.155815564095974 -0.46778964996337885 1.2089697718620303 -0.69834855198860157 0.66907998919487011 -0.34070551395416254 0.32435220479965216 -1.1245899200439451 -0.57481628656387318 0.28327745199203497 0.073254548013210311 -1.5024601221084593 -1.7550023198127744 0.26323466002941137
decision_type=2 2 2 2 2 2 2 2 2 2 2 2 2 2 2 2 2 2 2 2 2 2 2 2 2 2 2 2 2 2 2 2 2 2 2 2 2 2 2 2 2 2 2 2 2 2 2 2 2 2 2 2 2 2 2 2 2 2 2 2 2 2 2
left_child=1 4 5 15 6 10 7 18 17 13 -2 16 31 19 22 26 45 20 -1 -6 -5 -19 38 27 -17 33 29 -11 37 -3 -22 -10 -31 43 55 39 54 -26 49 -29 41 -27 -42 -21 56 -12 -46 -23 -30 -9 -36 -39 53 58 -33 -32 -41 -58 -37 60 -40 -62 -50
right_child=2 3 -4 8 9 -7 -8 14 12 23 11 -13 -14 -15 -16 24 -18 21 -20 25 30 47 -24 -25 28 40 -28 35 48 32 34 36 -34 -35 50 52 -38 51 59 44 42 -43 -44 -45 46 -47 -48 -49 62 -51 -52 -53 -54 -55 -56 -57 57 -59 -60 -61 61 -63 -64
leaf_value=-4.8130351040182953e-05 1.6342261869149734e-05 -7.182975901741852e-06 0.00010242447645608221 -1.7937889236805865e-05 -1.3416795484958919e-05 8.7661938239832858e-05 5.3772414671163541e-06 -4.6515243551807009e-05 1.0938126559673458e-05 -2.9759539971649002e-05 2.152120144883441e-05 7.0913798239341993e-05 6.6867564666407662e-05 -4.2908009743910929e-06 -1.3355117154202143e-05 -2.6696378368798729e-05 5.9351299002986068e-05 8.2827019624630827e-06 -8.0846398975582598e-05 -5.4710059442439723e-05 -5.2425137040877015e-07 2.1734415090197043e-05 -4.8850201681435619e-05 3.7733362680293438e-07 -1.0117269358858344e-06 -4.4520479836769941e-05 -4.5286399558277159e-06 -2.8126634730853873e-05 1.7537590417124223e-05 -3.240106630891372e-05 3.5719872180557033e-06 2.4970725452028751e-05 -9.7720264341066539e-06 -2.9865217939558781e-05 7.4484575043320944e-06 -1.3398492418674046e-05 3.1634094086605588e-05 2.5875719706069408e-06 -1.6691800433798147e-05 -9.225849224034163e-06 -3.5041321591668706e-05 -2.6120013276425519e-05 -1.7193261145244379e-05 -3.8908714932177106e-05 -1.4919243415942419e-05 3.4315568483377003e-05 -5.2600390487161492e-06 3.2979877419591116e-05 2.9730764399246882e-06 -3.0644640507060489e-05 1.6536212328682271e-05 1.3315122950658562e-05 -8.020841251878508e-06 -7.8370522763299422e-06 1.3414640343229344e-05 1.2414253722280921e-05 -2.8620912700377583e-05 -1.553929249784742e-05 -2.3309960062356417e-05 -3.6785855453111601e-05 -3.8384379380840061e-05 -2.3215418991710468e-05 1.1209762207604994e-05
leaf_weight=202.95950078964233 319.33020210266113 361.97540068626404 490.60565185546875 124.80295133590698 274.66765332221985 253.57810354232788 174.9578971862793 149.6936502456665 177.54665017127991 138.2541491985321 205.36115217208862 390.0785551071167 148.76355123519897 303.02410125732422 312.3466522693634 74.913449287414551 185.33225297927856 336.77625393867493 194.0163049697876 168.35475206375122 372.27675199508667 276.9897518157959 348.40630435943604 418.64869689941406 4612.3731392621994 170.9838490486145 5481.4970067739487 121.65824818611145 149.75520014762878 145.08060097694397 653.80525612831116 293.74055337905884 114.38344788551331 162.40365219116211 307.60829877853394 372.69954586029053 421.88425302505493 1245.0991963148117 129.27980065345764 121.2712996006012 140.37429928779602 217.0853009223938 244.34274888038635 170.32580280303955 431.26870226860046 275.26820278167725 341.34769988059998 284.94645261764526 455.12079739570618 127.35580039024353 654.748202085495 170.06519961357117 1684.3203570842743 410.95430278778076 174.28270030021667 248.13230037689209 187.92219805717468 252.28090047836304 188.65979838371277 101.29429960250854 114.86690020561218 185.65555095672607 214.01255106925964
leaf_count=20 22 53 19 10 30 19 9 23 23 13 22 31 13 23 24 8 21 43 21 26 48 38 32 52 992 23 1406 21 18 18 100 39 25 19 89 71 56 257 24 16 25 34 35 19 88 34 61 39 75 21 113 20 329 54 32 40 32 44 31 19 16 36 35
internal_value=-2.33487e-14 -4.99669e-06 6.14398e-05 2.35258e-06 -2.0019e-05 4.90961e-05 -3.48747e-05 -3.8649e-05 1.54627e-05 -1.53696e-05 4.19857e-05 4.97398e-05 2.87023e-05 -2.59651e-05 -3.17654e-05 -2.15321e-06 3.73375e-05 1.05234e-05 -6.41199e-05 -3.02064e-05 6.81813e-06 2.02591e-05 -3.67375e-05 -1.11681e-05 7.51058e-07 -3.38265e-05 -5.44694e-06 -1.23052e-05 1.05139e-06 -1.35469e-05 8.19954e-06 2.33835e-05 -2.24252e-05 -4.12866e-05 9.94158e-06 -1.17184e-05 2.58665e-05 1.36003e-07 -3.15155e-05 -1.516e-05 -2.89893e-05 -3.42273e-05 -2.37056e-05 -4.67634e-05 -1.39775e-05 2.88488e-05 -1.06517e-05 2.74368e-05 7.7892e-06 -3.92197e-05 1.36314e-05 3.87674e-06 -9.83259e-06 -1.29711e-05 2.06675e-05 6.00459e-06 -1.8554e-05 -2.11238e-05 -1.67295e-05 -2.74965e-05 -2.53072e-05 -2.90134e-05 5.60746e-06
internal_weight=28181.8 26062.3 2119.55 17500.6 8561.68 1628.95 2040.83 1865.87 4476.3 6520.85 1375.37 1056.04 1216.22 1851.56 1468.9 13024.3 665.962 3260.09 396.976 1548.54 2361.37 898.712 1156.55 4669.29 6921.34 1273.87 6102.94 4250.64 6846.43 621.439 2236.57 1067.45 259.464 501.084 1864.29 4112.38 889.908 6027.54 808.146 1455.75 772.786 388.069 384.717 338.681 1334.09 480.629 772.616 561.936 818.889 277.049 962.357 1415.16 2656.63 972.314 468.023 901.938 561.474 440.203 561.359 531.097 429.802 300.522 669.133
internal_count=5049 4881 168 3590 1291 149 245 236 683 1046 130 108 163 234 195 2907 77 520 41 211 400 120 171 812 1405 181 1502 760 1397 96 390 150 43 64 342 747 127 1269 139 262 117 57 60 45 241 56 149 77 128 44 202 277 485 156 71 140 92 76 102 95 76 52 110
is_linear=0
shrinkage=0.05


Tree=2
num_leaves=64
num_cat=0
split_feature=16 16 3 16 15 12 2 16 15 16 14 3 3 10 10 10 6 16 3 14 1 1 10 10 6 16 15 12 7 15 3 11 10 16 0 12 16 16 16 16 6 0 8 11 12 15 10 11 1 15 15 6 8 10 12 0 12 14 11 14 11 6 3
split_gain=0.00312326 0.00103873 0.000387097 0.000373195 0.000213479 0.000161255 0.000111928 0.000118099 0.000105673 0.000104794 9.87274e-05 0.000100114 8.91255e-05 6.14455e-05 4.85393e-05 4.49764e-05 4.49251e-05 4.24547e-05 3.83277e-05 3.39775e-05 2.91525e-05 2.78892e-05 2.64091e-05 2.21297e-05 2.05967e-05 1.6595e-05 1.63875e-05 1.61459e-05 2.06883e-05 1.55936e-05 1.26753e-05 1.23361e-05 1.1908e-05 1.18267e-05 1.18232e-05 1.13152e-05 1.03415e-05 9.82372e-06 9.63317e-06 9.23049e-06 8.67231e-06 8.05853e-06 7.72106e-06 7.72092e-06 1.17177e-05 1.02526e-05 7.63152e-06 7.39481e-06 6.41212e-06 5.89121e-06 5.87354e-06 6.97739e-06 7.03907e-06 6.4368e-06 5.5426e-06 5.35807e-06 4.23924e-06 4.03668e-06 3.92633e-06 3.91847e-06 7.13612e-06 3.90091e-06 3.82222e-06
threshold=1.8518199324607851 -0.23438487946987149 6.8687057495117196 0.42201338708400732 -0.90057703852653492 2.7994054555892949 3.4799066781997685 -2.0794883966445918 0.61711412668228161 -1.372517943382263 -0.0071393982507288447 1.2000319957733157 1.7356383204460146 0.11451093479990961 0.041829915717244155 0.10251856222748758 0.42200383543968206 1.2320906519889834 0.62250825762748729 -0.01955801714211702 -3.101750254631042 -0.29800055921077723 -0.17276079207658765 0.24697209149599078 -2.6553655862808223 -2.0794883966445918 -0.43728263676166529 -0.53690621256828297 0.77601253986358654 1.8392912149429324 -0.066830307245254503 -0.068537060171365724 0.17992384731769565 0.077426411211490645 0.67626723647117626 1.3144317269325259 -0.75339934229850758 0.63385099172592174 1.052253842353821 -0.75339934229850758 0.037303641438484199 -0.025016447529196736 -0.02039656043052673 -0.02136186137795448 0.052393518388271339 0.052238682284951217 -0.10298701748251914 -0.05082487873733043 0.28697821497917181 -1.3412564992904661 2.2946079969406132 0.56150513887405407 0.33032882213592535 -0.32321049273014063 0.60372593998909008 0.24598416686058047 0.33536224067211157 -0.025865272618830201 -0.010612422134727238 0.038408821448683746 0.01737923547625542 -1.155982971191406 1.0900066494941714
decision_type=2 2 2 2 2 2 2 2 2 2 2 2 2 2 2 2 2 2 2 2 2 2 2 2 2 2 2 2 2 2 2 2 2 2 2 2 2 2 2 2 2 2 2 2 2 2 2 2 2 2 2 2 2 2 2 2 2 2 2 2 2 2 2
left_child=1 4 5 15 6 10 7 18 17 13 -2 16 32 19 22 26 47 20 -1 -6 -5 -19 39 27 -17 35 30 28 -11 33 -3 -22 -10 54 -32 46 50 57 55 41 -41 -9 -39 44 -27 -45 -21 -12 -23 -43 51 52 53 58 -26 -34 -35 -33 -29 60 -40 -38 -28
right_child=2 3 -4 8 9 -7 -8 14 12 23 11 -13 -14 -15 -16 24 -18 21 -20 25 31 48 -24 -25 29 43 62 36 -30 -31 34 37 38 56 -36 -37 61 42 59 40 -42 49 -44 45 -46 -47 -48 -49 -50 -51 -52 -53 -54 -55 -56 -57 -58 -59 -60 -61 -62 -63 -64
leaf_value=-4.5723832962981449e-05 1.5525149052473754e-05 -6.8238273208276789e-06 9.7303249945980241e-05 -1.7040994558382691e-05 -1.2745955327152761e-05 8.3278843392027289e-05 5.1083792340668173e-06 -2.3969152471664523e-05 1.0391219942367171e-05 -1.3544569738161613e-05 1.890349635765239e-05 6.7368107886801797e-05 6.3524187864318134e-05 -4.0762606535051363e-06 -1.2687361676847468e-05 -2.5361561462967817e-05 5.6383733734053732e-05 7.868566629577609e-06 -7.6804078828794056e-05 -5.1974556231754322e-05 1.3986976708887551e-06 2.0647694169279618e-05 -4.6407691633244374e-05 3.5846688398236205e-07 -1.4686350632061759e-06 -4.2088311466195054e-05 -4.0585592308263553e-06 -2.272821526746048e-05 -3.2742679239928354e-05 1.9240187830497628e-05 -3.0781013158966791e-05 -1.6977858703968261e-06 2.3072116180368347e-05 2.1759860394877007e-06 -9.2834253322541843e-06 -2.8371957422443145e-05 -1.5968160630875202e-05 7.9481814833359183e-06 3.3591154017282195e-05 -1.4513036919541368e-05 -3.2534828692183868e-05 -4.1753573019942922e-05 1.6466879081329877e-05 -3.3289255286095356e-05 -2.4629983269721298e-05 -1.6333597926438306e-05 -3.6963278896581778e-05 3.1930058562191616e-05 3.1330883413326724e-05 -2.8428832493169669e-05 -3.6367241879395154e-06 -7.6409460845722765e-06 -2.4642302851578382e-05 -6.4443797830177315e-06 9.1381887214302318e-06 1.1309328683392931e-05 7.0370350659170641e-06 7.4074238319125985e-06 -1.2933711212289406e-05 3.7565212654626401e-05 1.7958879358060831e-05 -7.7867374736731475e-06 -1.1456923922288211e-05
leaf_weight=202.95950078964233 319.33020210266113 361.97540068626404 490.60565185546875 124.80295133590698 274.66765332221985 253.57810354232788 174.9578971862793 151.57949805259705 177.54665017127991 558.14765334129333 166.90515279769897 390.0785551071167 148.76355123519897 303.02410125732422 312.3466522693634 74.913449287414551 185.33225297927856 336.77625393867493 194.0163049697876 168.35475206375122 564.50690197944641 276.9897518157959 348.40630435943604 418.64869689941406 3736.1475970745087 175.29109907150269 5300.9761077165604 207.7754487991333 187.45979762077332 115.18665027618408 145.08060097694397 171.89385199546814 331.22955226898193 2311.23308801651 114.38344788551331 162.40365219116211 156.17985010147095 469.6022527217865 172.14725041389465 152.17610120773315 118.92045068740845 264.64640235900879 613.48530125617981 140.37429928779602 212.77805089950562 244.34274888038635 170.32580280303955 313.72420215606689 284.94645261764526 120.82354974746704 120.72600102424622 233.15744686126709 240.2270987033844 174.84895086288452 127.3623993396759 136.79370141029358 556.49634909629822 417.08250141143799 201.59879779815674 122.97090101242065 126.76610159873962 2170.5161566734314 180.52089905738831
leaf_count=20 22 53 19 10 30 19 9 23 23 101 20 31 13 23 24 8 21 43 21 26 82 38 32 52 810 24 1387 46 19 9 18 24 45 469 25 19 32 66 25 28 21 42 112 25 33 35 19 36 39 25 13 33 33 22 17 26 92 106 40 16 15 421 19
internal_value=-5.01592e-14 -4.74685e-06 5.83678e-05 2.23495e-06 -1.90181e-05 4.66413e-05 -3.3131e-05 -3.67166e-05 1.46895e-05 -1.46012e-05 3.98864e-05 4.72528e-05 2.72672e-05 -2.46668e-05 -3.01772e-05 -2.04555e-06 3.54706e-05 9.99726e-06 -6.09139e-05 -2.86961e-05 6.47722e-06 1.92462e-05 -3.49006e-05 -1.06097e-05 7.13505e-07 -3.21352e-05 -5.17459e-06 -1.169e-05 -1.83713e-05 9.98818e-07 -1.28696e-05 7.78957e-06 2.22143e-05 6.86667e-07 -2.13039e-05 -3.92223e-05 -1.02687e-05 9.94719e-06 2.45732e-05 -2.99397e-05 -2.24186e-05 -3.37363e-05 1.27734e-05 -2.75398e-05 -3.25159e-05 -2.25203e-05 -4.44252e-05 2.74064e-05 2.60649e-05 -3.7577e-05 -1.40851e-05 -1.52778e-05 -1.74375e-05 -1.44749e-05 -1.11898e-06 1.96341e-05 3.1193e-06 4.75005e-06 -1.79049e-05 3.00524e-05 2.69617e-05 -8.33592e-06 -4.30221e-06
internal_weight=28181.8 26062.3 2119.55 17500.6 8561.68 1628.95 2040.83 1865.87 4476.3 6520.85 1375.37 1056.04 1216.22 1851.56 1468.9 13024.3 665.962 3260.09 396.976 1548.54 2361.37 898.712 1156.55 4669.29 6921.34 1273.87 6102.94 4250.64 745.607 6846.43 621.439 2236.57 1067.45 6731.24 259.464 501.084 3505.03 1672.06 889.908 808.146 271.097 537.049 1083.09 772.786 388.069 384.717 338.681 480.629 561.936 385.47 1178.33 1057.61 824.45 584.223 3863.51 468.023 2867.73 588.976 409.374 421.884 298.913 2326.7 5481.5
internal_count=5049 4881 168 3590 1291 149 245 236 683 1046 130 108 163 234 195 2907 77 520 41 211 400 120 171 812 1405 181 1502 760 120 1397 96 390 150 1388 43 64 640 308 127 139 49 90 178 117 57 60 45 56 77 67 187 174 141 108 827 71 561 130 86 56 40 453 1406
is_linear=0
shrinkage=0.05


Tree=3
num_leaves=64
num_cat=0
split_feature=16 16 3 16 15 12 14 3 2 16 16 15 8 2 6 10 10 3 1 14 10 14 16 13 16 12 2 6 4 10 3 13 15 12 3 16 16 11 16 10 11 13 3 6 15 10 6 11 3 12 16 10 2 16 1 15 3 0 2 10 15 11 10
split_gain=0.00281995 0.000871568 0.000446002 0.00026276 0.000192665 0.000169384 0.000102596 0.000119464 0.000101015 0.000106585 9.45766e-05 8.58052e-05 7.25691e-05 5.76004e-05 5.38871e-05 4.38067e-05 4.05912e-05 3.45907e-05 3.10774e-05 2.88322e-05 2.38342e-05 2.23079e-05 2.16388e-05 2.13528e-05 2.11458e-05 2.00064e-05 1.92023e-05 1.85885e-05 1.62184e-05 1.57267e-05 1.48114e-05 1.47347e-05 1.40732e-05 1.24932e-05 1.23798e-05 1.06736e-05 9.62742e-06 9.10995e-06 8.41239e-06 8.26944e-06 7.31967e-06 6.8917e-06 6.5105e-06 6.39912e-06 5.64239e-06 5.30784e-06 5.16633e-06 5.03063e-06 9.2321e-06 5.0022e-06 4.88712e-06 6.54096e-06 4.87619e-06 4.7949e-06 5.01984e-06 4.42147e-06 4.25748e-06 4.18003e-06 5.36404e-06 4.77825e-06 4.01656e-06 3.84103e-06 4.96185e-06
threshold=1.546548664569855 -0.23438487946987149 6.8687057495117196 0.42201338708400732 -0.90057703852653492 2.7994054555892949 -0.0071393982507288447 1.9751350879669192 3.4799066781997685 -2.0794883966445918 -1.372517943382263 0.61711412668228161 1.3093287348747256 1.8673611283302309 0.37978622317314154 0.041829915717244155 0.10251856222748758 0.62250825762748729 -3.101750254631042 -0.01955801714211702 -0.17276079207658765 0.0269228694960475 -1.8851420879364011 -0.15241260081529615 0.82335880398750316 -0.50351920723915089 0.3633099645376206 -2.6553655862808223 0.49898721277713781 0.24697209149599078 1.7356383204460146 -0.21182812005281446 1.8392912149429324 -1.0962613224983213 -0.040993895381689065 0.077426411211490645 -0.75339934229850758 -0.029857508838176724 -1.2092754840850828 0.1513965502381325 -0.0036294634919613595 0.32435220479965216 0.43269711732864385 0.155815564095974 -0.50010365247726429 -0.99369299411773671 0.55006384849548351 -0.095756798982620225 0.28327745199203497 0.60372593998909008 1.0000000180025095e-35 -1.1027145385742185 0.70581349730491649 1.052253842353821 0.25690540671348577 -0.51485124230384816 0.20334505289793017 -1.5658554434776304 0.25030702352523809 -0.54434254765510548 0.50590673089027416 0.073254548013210311 -1.5024601221084593
decision_type=2 2 2 2 2 2 2 2 2 2 2 2 2 2 2 2 2 2 2 2 2 2 2 2 2 2 2 2 2 2 2 2 2 2 2 2 2 2 2 2 2 2 2 2 2 2 2 2 2 2 2 2 2 2 2 2 2 2 2 2 2 2 2
left_child=1 4 5 16 8 6 -2 14 9 17 13 18 53 19 21 20 30 -1 -5 -6 38 31 28 -16 39 26 -12 -18 42 36 33 -8 35 -3 41 49 45 44 43 -20 -39 -26 -21 -11 -36 -27 -41 -47 52 -29 55 -52 -49 54 -13 -35 -55 -24 59 -59 -37 62 -40
right_child=2 3 -4 11 10 -7 7 -9 -10 15 25 12 -14 -15 23 -17 27 -19 24 22 -22 -23 57 -25 34 29 -28 32 -30 -31 -32 -33 -34 50 37 60 -38 40 61 46 -42 -43 -44 -45 -46 47 -48 48 -50 -51 51 -53 -54 56 -56 -57 -58 58 -60 -61 -62 -63 -64
leaf_value=-4.3437642019092028e-05 1.4240465845940403e-05 -2.0838788877927215e-05 9.2438088849724437e-05 -1.6188944672107366e-05 -1.2443658526119315e-05 7.6392347989033527e-05 5.9467460803598531e-06 6.8136120603554378e-05 4.8529601180760563e-06 -4.2514804007225922e-05 -1.2276709856049124e-05 1.3296756884772222e-05 5.7598723525106533e-05 1.1744630275137138e-06 6.1052367893750807e-05 -1.2052993618658157e-05 -2.4093484013968002e-05 -7.2963874158319663e-05 -2.707763271714809e-06 -3.2422240210140084e-05 -4.4087307288329737e-05 3.494566994125497e-05 -1.5743221769610903e-05 3.6902751155419109e-05 7.1229033616669051e-07 -1.8973727935683014e-05 -2.9165985802966143e-05 -1.3952032100508933e-06 -2.3162869378327771e-05 6.3288073802699951e-07 -2.1450164557954987e-05 2.5599595305275154e-05 1.8278178420338579e-05 -1.5776043436790503e-05 4.8897820930736981e-06 2.2110720606014728e-06 -7.8003349277484771e-06 3.0425353385876227e-05 -1.4503066783168778e-05 4.8582469261020172e-06 1.7405015313552869e-05 1.2453657507144877e-05 -4.4682669467508492e-05 -2.7267341547385441e-05 1.6531406300628736e-05 -3.6633944336319823e-06 1.3628704619919136e-05 -6.1732302917297641e-06 -2.2487464188343233e-05 8.6812792109495154e-06 -1.3864400818123158e-05 -2.3693530857143398e-06 -1.7067437086544466e-05 2.939419780724066e-05 2.3011967946177594e-05 -5.3494467818983531e-06 1.8674333982592597e-05 -2.6281991411086867e-05 -3.496215778602066e-05 -1.4599156368178536e-05 7.6180019018183505e-06 -3.351709169374528e-05 -2.6217527540084668e-05
leaf_weight=202.95950078964233 480.21370363235474 115.42450022697449 490.60565185546875 124.80295133590698 295.21815419197083 271.89700365066528 172.30780076980591 314.6975040435791 174.9578971862793 149.6936502456665 577.97830367088318 370.97270059585571 145.04155111312866 210.73624897003174 176.45095062255859 312.3466522693634 74.913449287414551 194.0163049697876 298.39325046539307 160.24105000495911 348.40630435943604 303.33810377120972 142.37224960327148 190.19265365600586 235.35754942893982 311.92129826545715 237.42889738082886 3736.1475970745087 179.61330223083496 414.01554679870605 132.50455093383789 213.60975313186646 115.18665027618408 105.69040060043335 199.81330323219299 2468.7462378740311 2284.1663565635681 143.86774921417236 129.27980065345764 754.62205362319946 432.24815368652344 266.47955226898193 333.90870475769043 127.35580039024353 217.24325060844421 170.31914949417114 215.96475267410278 330.49560070037842 193.92979907989502 127.3623993396759 129.18719971179962 2942.6693478822708 149.03094673156738 186.3059515953064 207.23830223083496 2677.4604569673538 184.19385051727295 289.24270081520081 114.73599910736084 125.49375009536743 398.98319923877716 101.29429960250854 300.52245116233826
leaf_count=20 38 18 19 10 35 21 18 24 9 23 104 56 13 13 18 24 8 21 40 24 32 37 8 24 30 69 29 810 23 51 7 29 9 21 23 500 444 24 24 155 70 38 42 21 40 18 44 50 26 17 38 704 21 25 31 714 24 53 18 18 61 19 52
internal_value=-1.9494e-14 -5.05649e-06 4.94724e-05 1.49343e-06 -1.80672e-05 3.95421e-05 3.41285e-05 4.10967e-05 -3.14744e-05 -3.48808e-05 -1.38711e-05 1.27326e-05 2.466e-05 -2.34335e-05 3.30379e-05 -2.86683e-05 -1.94327e-06 -5.78682e-05 8.21666e-06 -2.6594e-05 -3.31556e-05 2.47997e-05 -2.96984e-05 4.8525e-05 9.31865e-06 -1.00792e-05 -1.71945e-05 6.7783e-07 -3.603e-05 -8.57377e-06 -4.91586e-06 1.68248e-05 9.48877e-07 -4.54891e-06 1.33479e-05 6.52334e-07 -9.68187e-06 1.65821e-05 -2.84427e-05 4.57177e-06 2.06565e-05 6.94705e-06 -4.07069e-05 -3.55058e-05 1.09539e-05 -1.34006e-05 6.80976e-06 -1.13404e-05 -1.32819e-05 -1.06303e-06 -4.22777e-06 -2.85278e-06 -9.55902e-06 1.96242e-05 1.67788e-05 -5.7454e-06 2.40648e-05 -2.33488e-05 -2.53939e-05 -2.27469e-05 2.96333e-06 -2.47582e-05 -2.26939e-05
internal_weight=28181.8 25568.5 2613.31 17006.8 8561.68 2122.71 1850.81 1370.6 2040.83 1865.87 6520.85 3982.54 1093.75 1851.56 1055.9 1468.9 13024.3 396.976 2888.79 1640.83 1156.55 689.256 1345.61 366.644 2763.99 4669.29 815.407 6921.34 673.763 3853.88 6102.94 385.918 6846.43 5970.43 1495.01 6731.24 3439.86 993.172 808.146 1268.98 576.116 501.837 494.15 277.049 417.057 1155.7 970.587 843.775 673.456 3863.51 5855.01 3071.86 479.527 948.711 578.211 2783.15 370.5 671.845 529.472 414.736 2867.73 531.097 429.802
internal_count=5049 4821 228 3530 1291 209 188 150 245 236 1046 623 149 234 126 195 2907 41 474 221 171 84 186 42 464 812 133 1405 89 679 1502 47 1397 1495 225 1388 628 157 139 239 94 68 66 44 63 184 199 115 97 827 1477 742 71 136 87 735 49 97 89 71 561 95 76
is_linear=0
shrinkage=0.05


Tree=4
num_leaves=64
num_cat=0
split_feature=16 16 3 16 15 12 16 2 16 15 14 3 3 6 10 10 6 16 3 10 14 1 4 10 10 15 3 12 11 15 16 15 10 12 10 16 16 14 1 16 16 15 16 10 9 2 10 11 12 15 0 16 10 1 1 1 0 0 6 3 10 14 11
split_gain=0.00254926 0.000847577 0.000314301 0.000272254 0.000200018 0.000131853 9.94783e-05 8.91228e-05 9.96084e-05 8.64379e-05 8.16384e-05 9.37306e-05 7.28907e-05 5.47838e-05 5.22505e-05 4.02294e-05 3.78145e-05 3.45366e-05 3.12181e-05 3.08918e-05 2.74115e-05 2.37627e-05 2.37387e-05 2.26739e-05 2.03441e-05 1.78239e-05 1.71091e-05 1.6836e-05 1.40299e-05 1.76058e-05 1.31729e-05 1.07682e-05 1.06417e-05 1.01397e-05 8.88412e-06 8.31719e-06 8.1485e-06 8.12265e-06 8.89812e-06 1.15639e-05 7.98342e-06 7.7047e-06 7.48426e-06 7.13587e-06 7.00696e-06 8.55869e-06 7.06243e-06 6.86691e-06 1.03801e-05 8.79151e-06 6.70914e-06 6.34113e-06 5.85694e-06 5.27683e-06 5.27614e-06 5.24411e-06 4.76959e-06 4.38089e-06 4.03497e-06 3.71865e-06 3.63384e-06 3.34144e-06 6.437e-06
threshold=1.8518199324607851 -0.13819074630737302 6.8687057495117196 0.42201338708400732 -0.90057703852653492 2.7994054555892949 -1.372517943382263 3.4799066781997685 -2.0794883966445918 0.61711412668228161 -0.0060399991925805798 1.9751350879669192 1.7356383204460146 -2.6553655862808223 0.11451093479990961 0.041829915717244155 0.43350300192832952 1.2320906519889834 0.62250825762748729 0.13122756779193881 -0.01955801714211702 -0.29800055921077723 -0.27519506216049189 0.1286837309598923 -0.019585547037422654 0.91395083069801342 1.7356383204460146 -1.6062272191047666 0.0032351254485547547 -0.41740250587463373 -2.0794883966445918 -1.2943680286407468 0.17992384731769565 1.3144317269325259 0.14758079499006274 0.077426411211490645 0.63385099172592174 0.0051673648413270721 0.54461878538131725 -0.92748570442199696 1.052253842353821 -0.058375367894768708 -0.69834855198860157 -0.29050405323505396 -1.9025136828422544 0.70581349730491649 -0.99369299411773671 -0.02136186137795448 0.052393518388271339 0.052238682284951217 -0.45721359550952906 -0.38342311978340143 -1.1027145385742185 -0.98643070459365834 -0.10154819488525389 0.28697821497917181 -0.34070551395416254 0.27051624655723577 -0.29089598357677454 0.34776762127876287 1.1687491536140444 0.038408821448683746 0.01737923547625542
decision_type=2 2 2 2 2 2 2 2 2 2 2 2 2 2 2 2 2 2 2 2 2 2 2 2 2 2 2 2 2 2 2 2 2 2 2 2 2 2 2 2 2 2 2 2 2 2 2 2 2 2 2 2 2 2 2 2 2 2 2 2 2 2 2
left_child=1 4 5 19 7 10 14 8 18 17 -2 16 32 -8 20 24 28 22 -1 26 -6 -19 -5 27 31 35 52 -15 29 -12 33 37 -11 43 -24 -21 -36 -10 39 -39 56 -25 44 -22 -29 46 -46 48 -32 -49 51 -44 57 -38 -48 -23 -34 -3 -43 -60 -55 62 -42
right_child=2 3 -4 9 6 -7 13 -9 15 12 11 -13 -14 23 -16 -17 -18 21 -20 25 30 55 34 41 -26 -27 -28 42 -30 -31 47 -33 40 -35 36 -37 53 38 -40 -41 61 58 50 -45 45 -47 54 49 -50 -51 -52 -53 -54 60 -56 -57 -58 -59 59 -61 -62 -63 -64
leaf_value=-4.1265759077471153e-05 1.5311923766076717e-05 -1.980089954064386e-05 8.7816184087157614e-05 -5.6618886102558945e-06 -1.1651057986738782e-05 7.5295280892375159e-05 -4.196987515840247e-05 4.6103119998876072e-06 -2.2999711226100944e-05 8.8602808471357203e-06 9.2909895531854267e-06 6.7882784250883417e-05 5.7395511173823751e-05 -2.8213055271545193e-05 -3.2742811221375061e-06 -1.1129848407159311e-05 5.1725359570451935e-05 6.8270587058746791e-06 -6.9315682343493743e-05 -1.0015631560899645e-06 -4.9017254251459122e-05 1.8724310027581711e-05 -2.1204749754966323e-07 -1.0147102070457219e-05 -4.4802237219233347e-05 1.5474119391549589e-05 -2.2832119344453737e-05 -1.4737155949084661e-06 3.8364427187047462e-05 3.1590204202420551e-05 -3.8674454886823023e-05 -1.9880595361617732e-05 2.1658616311673942e-05 -2.5109321849886206e-05 4.6048628260512516e-06 2.8835882686841985e-06 3.3230309055736577e-06 -3.726620178911533e-05 -4.5155795546309802e-05 -1.8094430245409951e-05 3.0697254088055312e-05 -5.0726122099117972e-06 -8.0056308701079565e-06 -3.4259301741176159e-05 -1.6696748261742746e-05 -2.1049055774405288e-05 -1.3842941700379562e-05 -3.0210472973038695e-05 -2.2242757322908474e-05 -1.4509411521381926e-05 -7.0141910161180342e-06 -1.9697400942286168e-05 -2.9859450214483191e-06 1.0847671393986008e-05 -4.0648908180174203e-06 2.8385621717779195e-05 1.1217781341603818e-05 -6.6330472959901315e-06 6.5389955359682404e-08 8.5072184830897371e-06 1.7187707958230637e-05 3.4192620620182626e-05 1.5850460885256272e-05
leaf_weight=202.95950078964233 352.63275241851807 79.977149605751038 490.60565185546875 378.50410127639771 274.66765332221985 253.57810354232788 123.20014786720276 174.9578971862793 205.04660058021545 177.54665017127991 167.60130167007446 279.68145370483398 148.76355123519897 119.01989960670471 303.02410125732422 320.99965214729309 212.867103099823 336.77625393867493 194.0163049697876 2961.0142461061478 138.76325178146362 276.9897518157959 282.27130174636841 187.12774991989136 219.84135341644287 215.15180158615112 115.52465057373047 134.824547290802 175.00570154190063 187.58205270767212 175.29109907150269 289.67670130729675 293.74055337905884 162.40365219116211 587.91425395011902 2575.8902866840363 154.99345111846924 221.08465099334717 146.76745080947876 122.08885025978088 172.14725041389465 189.37614941596985 247.75500297546387 199.91730308532715 359.70689868927002 286.56019496917725 222.97530174255371 140.37429928779602 212.77805089950562 244.34274888038635 2904.3510086536407 218.0232515335083 5488.1447496414185 592.193354845047 361.83415174484253 284.94645261764526 174.28270030021667 300.47059953212738 330.51049733161926 215.51730179786682 365.49729776382446 122.97090101242065 126.76610159873962
leaf_count=20 24 17 19 30 30 19 17 9 27 23 20 22 13 11 23 25 22 43 21 705 22 38 43 23 17 25 6 11 20 22 24 57 39 19 139 516 22 35 22 19 25 29 33 23 82 41 37 25 33 35 672 30 1258 107 53 39 32 76 44 26 59 16 15
internal_value=-4.55022e-14 -4.28854e-06 5.27323e-05 2.73963e-06 -1.58567e-05 4.21658e-05 -1.21506e-05 -2.95549e-05 -3.26641e-05 1.32311e-05 3.60576e-05 4.32106e-05 2.46066e-05 -8.97787e-06 -2.22618e-05 -2.68583e-05 3.39242e-05 8.98731e-06 -5.49748e-05 -1.26193e-06 -2.59774e-05 1.73293e-05 5.81246e-06 -8.27436e-06 -3.105e-05 1.35455e-06 -3.77694e-06 -9.63974e-06 2.67771e-05 2.10678e-05 -2.90664e-05 -2.79796e-05 2.00371e-05 -3.53806e-05 8.00276e-06 8.05895e-07 9.36629e-06 -3.13553e-05 -3.48522e-05 -3.04456e-05 2.22669e-05 -1.08871e-06 -9.17298e-06 -4.03059e-05 -1.22951e-05 -1.34802e-05 -1.11839e-05 -2.49721e-05 -2.9665e-05 -2.02384e-05 -7.90759e-06 -1.34784e-05 -3.40183e-06 1.18821e-05 -7.79305e-06 2.36234e-05 1.77707e-05 -9.40117e-06 1.21625e-06 3.39738e-06 1.32673e-05 2.7255e-05 2.44009e-05
internal_weight=28181.8 26062.3 2119.55 16212.5 9849.78 1628.95 7752.34 2097.44 1922.48 4476.3 1375.37 1022.74 1216.22 5900.78 1851.56 1525.51 743.056 3260.09 396.976 11736.2 1548.54 898.712 2361.37 5777.58 1204.51 5752.06 5984.12 4855.05 530.189 355.183 1273.87 984.664 1067.45 501.084 1982.87 5536.9 1700.6 694.988 489.941 343.174 889.908 922.532 4736.03 338.681 1365.9 1231.08 944.516 772.786 388.069 384.717 3370.13 465.778 5868.59 1112.68 584.809 561.936 468.023 380.448 735.404 546.028 957.691 421.884 298.913
internal_count=5049 4881 168 3286 1595 149 1343 252 243 683 130 106 163 1109 234 202 84 520 41 2603 211 120 400 1092 177 1246 1357 970 62 42 181 160 150 64 370 1221 327 103 76 54 127 122 959 45 224 213 172 117 57 60 735 63 1351 188 90 77 71 93 99 70 166 56 40
is_linear=0
shrinkage=0.05


Tree=5
num_leaves=64
num_cat=0
split_feature=16 16 3 16 15 12 16 2 16 15 14 3 3 6 2 10 6 6 16 3 10 14 10 10 16 15 3 12 4 3 1 10 15 10 16 16 2 14 1 16 16 12 5 15 1 2 10 10 16 1 10 0 15 16 15 15 4 10 11 6 6 3 1
split_gain=0.00230071 0.000764938 0.000283656 0.000245709 0.000180516 0.000118997 8.97791e-05 8.04333e-05 8.98966e-05 7.80102e-05 7.36787e-05 8.45918e-05 6.57839e-05 4.94424e-05 4.92369e-05 3.6307e-05 3.41275e-05 3.18642e-05 2.93562e-05 2.81744e-05 2.78798e-05 2.3256e-05 2.04632e-05 1.83606e-05 1.7893e-05 1.60861e-05 1.5441e-05 1.51945e-05 1.45654e-05 1.30522e-05 1.22816e-05 1.04e-05 9.71831e-06 9.60411e-06 7.73161e-06 7.50627e-06 7.33506e-06 7.33069e-06 8.03055e-06 1.04364e-05 7.20503e-06 7.08723e-06 1.08875e-05 6.95349e-06 6.31535e-06 6.07819e-06 5.39294e-06 5.00062e-06 4.57466e-06 7.17793e-06 5.00403e-06 4.37941e-06 4.17128e-06 4.03015e-06 4.16675e-06 3.87993e-06 3.86808e-06 6.38728e-06 3.67521e-06 3.64156e-06 3.56788e-06 5.45663e-06 3.4901e-06
threshold=1.8518199324607851 -0.13819074630737302 6.8687057495117196 0.42201338708400732 -0.90057703852653492 2.7994054555892949 -1.372517943382263 3.4799066781997685 -2.0794883966445918 0.61711412668228161 -0.0060399991925805798 1.9751350879669192 1.7356383204460146 -2.6553655862808223 1.8673611283302309 0.041829915717244155 0.43350300192832952 -1.0203561782836912 1.2320906519889834 0.62250825762748729 0.13122756779193881 -0.01955801714211702 0.1286837309598923 -0.019585547037422654 -1.8851420879364011 0.91395083069801342 1.7356383204460146 -1.6062272191047666 0.49898721277713781 0.82032400369644176 0.28697821497917181 0.14758079499006274 -1.2943680286407468 0.17992384731769565 0.63385099172592174 0.077426411211490645 0.83155998587608349 0.0051673648413270721 0.54461878538131725 -0.92748570442199696 1.052253842353821 -0.07879243046045302 -1.4732292890548704 -0.058375367894768708 -0.47309978306293482 0.16402520239353183 -1.4297791123390196 1.1687491536140444 -0.47123907506465906 -0.026245468296110627 -0.95735245943069447 0.24598416686058047 -0.14223240315914151 -0.38342311978340143 0.7494320571422578 -0.28544284403324122 -0.18806898593902585 -0.43259544670581812 -0.029857508838176724 -0.29089598357677454 0.12491008639335634 0.42206025123596197 -0.29800055921077723
decision_type=2 2 2 2 2 2 2 2 2 2 2 2 2 2 2 2 2 2 2 2 2 2 2 2 2 2 2 2 2 2 2 2 2 2 2 2 2 2 2 2 2 2 2 2 2 2 2 2 2 2 2 2 2 2 2 2 2 2 2 2 2 2 2
left_child=1 4 5 20 7 10 14 8 19 17 -2 16 33 -8 21 23 29 36 31 -1 26 -6 27 32 28 35 46 -15 45 44 62 -19 37 -11 -33 -22 -5 -10 39 -39 51 42 -29 -24 -12 58 -3 55 49 50 -43 -35 -49 54 -44 -36 -52 -58 -23 -45 -26 -62 -20
right_child=2 3 -4 9 6 -7 13 -9 15 12 11 -13 -14 22 -16 -17 -18 18 30 -21 25 24 43 -25 60 -27 -28 41 -30 -31 -32 34 -34 40 47 -37 -38 38 -40 -41 -42 48 53 59 -46 -47 -48 52 -50 -51 56 -53 -54 -55 -56 -57 57 -59 -60 -61 61 -63 -64
leaf_value=-3.9202472375455431e-05 1.4546328110342701e-05 -1.1585226913522655e-05 8.3425377214164101e-05 1.1929199757173242e-06 -1.1362269129264683e-05 7.1530516401290803e-05 -3.9871382688796286e-05 4.3797966951602582e-06 -2.1849725797818077e-05 8.4172669597622144e-06 1.3079207334883284e-05 6.4488643276592648e-05 5.4525734570913771e-05 -2.6802403182791869e-05 1.6026771979228707e-06 -1.057335621529797e-05 4.913909322166758e-05 -8.390346729272201e-07 9.4716586137983031e-06 -6.5849897107265819e-05 -9.514849539855355e-07 -2.6758091376194521e-05 -9.6397473084181728e-06 -4.2562124460366319e-05 -2.4504011227738524e-05 1.4700413580366167e-05 -2.1690513437063818e-05 -2.4389971509118937e-05 -2.0422662781847334e-05 3.6247431171806491e-05 2.6966340777117553e-05 4.5143380289344031e-06 -1.8886565691793411e-05 1.9990347689193564e-05 5.7544187151712901e-06 2.7394088611396624e-06 -1.1979192030067396e-05 -3.5402892008296279e-05 -4.2898005481212972e-05 -1.718970902754169e-05 2.5892229907282897e-05 -2.1318814469070415e-05 -1.4179996354615465e-05 -4.8189816872914718e-06 2.6565629209150044e-05 -4.377935803589927e-05 -2.9567185245150022e-06 2.3019072500751206e-05 -5.5386660372234383e-06 -5.9392165971155012e-06 -6.3249036650480567e-06 9.3559225869112533e-06 1.2083562884148611e-05 -7.2829802310491071e-06 -4.9741596855594245e-06 1.3370637688850966e-05 -5.9961196600535653e-06 -2.1178496965016447e-05 -3.7935254975067246e-05 3.2275125835625036e-06 -2.3200402091033912e-05 -9.9725623842149795e-06 1.7788094478591935e-05
leaf_weight=202.95950078964233 352.63275241851807 187.05199813842773 490.60565185546875 275.15835213661194 295.21815419197083 253.57810354232788 123.20014786720276 174.9578971862793 205.04660058021545 177.54665017127991 175.6394510269165 279.68145370483398 148.76355123519897 119.01989960670471 210.73624897003174 320.99965214729309 212.867103099823 328.20855259895325 231.66695237159729 194.0163049697876 2961.0142461061478 143.66710019111633 187.12774991989136 219.84135341644287 357.27079844474792 215.15180158615112 115.52465057373047 146.09020233154297 179.61330223083496 182.92320346832275 284.94645261764526 632.82145285606384 289.67670130729675 331.22955226898193 396.58175301551819 2575.8902866840363 171.60340118408203 221.08465099334717 146.76745080947876 122.08885025978088 421.88425302505493 145.34109854698181 663.75454640388489 189.37614941596985 171.62640142440796 199.79830360412598 5681.5405006408691 139.01909995079041 1680.1395052671432 723.96169924736023 250.48344826698303 136.79370141029358 233.95939803123474 690.51870262622833 150.85195136070251 289.13105249404907 118.89110112190247 165.99810242652893 150.68435096740723 546.02779912948608 171.92190074920654 142.65200042724609 276.9897518157959
leaf_count=20 24 37 19 41 35 19 17 9 27 23 20 22 13 11 13 25 22 41 29 21 705 20 23 17 54 25 6 16 23 21 39 143 57 45 60 516 14 35 22 19 56 32 128 29 21 26 1314 23 389 117 37 26 37 173 25 55 17 25 20 70 29 14 38
internal_value=-5.6628e-15 -4.07411e-06 5.00957e-05 2.60265e-06 -1.50639e-05 4.00575e-05 -1.15431e-05 -2.80771e-05 -3.10309e-05 1.25695e-05 3.42548e-05 4.10501e-05 2.33763e-05 -8.52898e-06 -2.11487e-05 -2.55154e-05 3.2228e-05 8.53794e-06 1.05078e-05 -5.2226e-05 -1.19883e-06 -2.40707e-05 -7.86064e-06 -2.94975e-05 -2.68589e-05 1.28682e-06 -3.58809e-06 -9.15775e-06 -3.26164e-05 2.54383e-05 1.86559e-05 7.30621e-06 -2.65806e-05 1.90352e-05 8.88665e-06 7.656e-07 -3.86655e-06 -2.97875e-05 -3.31096e-05 -2.89233e-05 2.11536e-05 -8.71433e-06 -1.1358e-05 -1.03428e-06 1.97445e-05 -3.70486e-05 -3.23174e-06 1.15002e-05 -7.29922e-06 -9.40504e-06 -1.30911e-05 1.68821e-05 1.61595e-05 -1.00931e-05 -1.24752e-05 8.9658e-06 -1.08574e-05 -1.48425e-05 -3.24799e-05 1.15543e-06 -2.1085e-05 -1.72019e-05 1.40004e-05
internal_weight=28181.8 26062.3 2119.55 16212.5 9849.78 1628.95 7752.34 2097.44 1922.48 4476.3 1375.37 1022.74 1216.22 5900.78 1851.56 1525.51 743.056 3260.09 2813.32 396.976 11736.2 1640.83 5777.58 1204.51 1345.61 5752.06 5984.12 4855.05 673.763 530.189 793.603 2019.72 984.664 1067.45 1691.51 5536.9 446.762 694.988 489.941 343.174 889.908 4736.03 1651.22 922.532 347.266 494.15 5868.59 1058.69 3084.81 1404.68 680.714 468.023 372.978 1505.13 814.606 685.713 535.373 284.889 294.351 735.404 671.845 314.574 508.657
internal_count=5049 4881 168 3286 1595 149 1343 252 243 683 130 106 163 1109 234 202 84 520 465 41 2603 221 1092 177 186 1246 1357 970 89 62 106 359 160 150 318 1221 55 103 76 54 127 959 342 122 41 66 1351 175 617 228 111 71 60 326 153 115 79 42 40 99 97 43 67
is_linear=0
shrinkage=0.05


Tree=6
num_leaves=64
num_cat=0
split_feature=16 16 3 16 15 12 6 14 7 16 15 16 13 10 7 10 1 3 16 14 13 2 1 12 2 15 10 10 15 13 16 15 2 15 4 10 3 3 7 3 12 16 4 0 2 3 11 3 2 16 16 0 15 6 1 2 2 14 16 12 13 0 10
split_gain=0.00207771 0.000642219 0.000326982 0.000191799 0.000141817 0.000124518 7.77597e-05 7.73736e-05 9.30303e-05 6.92525e-05 6.45807e-05 6.01026e-05 4.8015e-05 4.44396e-05 4.0367e-05 2.96921e-05 2.96272e-05 2.90926e-05 2.22084e-05 2.20902e-05 1.74146e-05 2.84414e-05 1.59279e-05 1.55054e-05 1.60797e-05 1.43935e-05 1.3619e-05 1.21847e-05 1.186e-05 1.1721e-05 1.16681e-05 9.53256e-06 1.25624e-05 9.25204e-06 1.48011e-05 9.19613e-06 9.03046e-06 8.9958e-06 8.91865e-06 8.43162e-06 8.31081e-06 7.71712e-06 7.23903e-06 7.08585e-06 6.29613e-06 5.64708e-06 5.72891e-06 5.38191e-06 5.04602e-06 4.7481e-06 4.13704e-06 4.12335e-06 4.82417e-06 5.91322e-06 4.67047e-06 3.85911e-06 4.60271e-06 3.65914e-06 3.65197e-06 4.26752e-06 3.22613e-06 3.38458e-06 3.17732e-06
threshold=1.546548664569855 -0.23438487946987149 6.8687057495117196 0.42201338708400732 -0.90057703852653492 2.7994054555892949 1.9524840116500857 -0.0071393982507288447 1.0588023662567141 -1.372517943382263 1.0100929141044619 -2.190118551254272 -0.36677502095699305 0.11451093479990961 1.0246726274490359 0.10251856222748758 -1.0238949060440061 1.9751350879669192 0.85358679294586193 -0.01955801714211702 -0.2638354748487472 0.96165511012077343 -2.4190047979354854 -0.50351920723915089 0.3633099645376206 0.91395083069801342 0.030019250698387626 0.24697209149599078 -0.65541756153106678 3.0426739454269414 -2.9889016151428218 -1.8513534069061277 0.25030702352523809 0.38460931181907659 -0.18806898593902585 0.1513965502381325 0.26988732814788824 -0.066830307245254503 1.2617951035499575 0.44318497180938726 0.33536224067211157 -0.75339934229850758 -0.058267736807465546 -0.074715331196784959 0.12781316787004474 -0.013665662612766026 -0.044815955683588975 1.0900066494941714 -0.48573596775531763 0.17455963045358661 1.0000000180025095e-35 -1.508338391780853 1.1481595039367678 0.29676447808742529 -0.55965638160705555 0.22475487738847735 -0.2802193015813827 0.011390797328203918 0.63385099172592174 0.62154287099838268 -0.32329325377941126 -0.36103945970535273 -0.7393093705177306
decision_type=2 2 2 2 2 2 2 2 2 2 2 2 2 2 2 2 2 2 2 2 2 2 2 2 2 2 2 2 2 2 2 2 2 2 2 2 2 2 2 2 2 2 2 2 2 2 2 2 2 2 2 2 2 2 2 2 2 2 2 2 2 2 2
left_child=1 4 5 15 6 7 11 -2 12 13 16 -1 -9 19 55 28 42 -10 35 -6 21 26 -17 24 57 40 31 41 37 36 -21 -13 48 39 43 -18 -14 -3 45 44 49 51 -5 -35 -32 -20 -47 50 -33 -24 -30 -25 53 54 -53 56 -12 -11 59 -37 -42 -62 -52
right_child=2 3 -4 10 9 -7 -8 8 17 23 14 20 29 -15 -16 22 18 -19 38 30 -22 -23 25 27 -26 -27 -28 -29 47 -31 33 32 -34 34 -36 58 -38 -39 -40 -41 60 -43 -44 -45 -46 46 -48 -49 -50 -51 62 52 -54 -55 -56 -57 -58 -59 -60 -61 61 -63 -64
leaf_value=-4.9534516032451528e-05 1.2049861600699567e-05 -6.1986013389108228e-06 7.9254105729039615e-05 -1.3064408679667285e-05 -1.0657080685161939e-05 6.5557731208859869e-05 -4.7641635919536259e-07 4.6171189842796345e-05 3.8646828445091345e-05 -5.3316100560679862e-06 2.032594133971761e-05 -3.4715825946954726e-05 1.9111739282708429e-05 -2.5803875089264456e-06 4.4656777425967692e-05 -1.8422712148375912e-05 -2.4017023200317626e-06 6.241531415161777e-05 1.0323057093088499e-05 -3.8710059707988296e-05 -1.3439543843799641e-05 -4.618461630813255e-05 -9.5236100533998958e-07 -4.4262621632864e-06 -2.5882827607245729e-05 1.2966450046251138e-05 -1.48231785352734e-05 7.6523234288354992e-07 -4.699553661547779e-06 2.7613905239679411e-05 -2.9824466091868529e-05 -2.5000373242003993e-05 -3.6215253649128798e-05 -3.4630287730517389e-05 -1.1898417995416585e-05 3.9299523960713644e-06 3.8926738334440971e-06 -2.1176197711452491e-05 3.3551527231307393e-06 -3.9632069645069432e-05 2.3954800360765948e-06 -6.6294173126762479e-06 4.0515576323511463e-07 -1.9740830979462325e-05 -1.5635954723872285e-05 1.1076069166209542e-05 2.0163543470394044e-05 -1.1120274773621891e-05 -1.2364350910227341e-05 2.4446587867920193e-06 -7.010945031726925e-06 -2.5646389001753733e-05 -7.0936146358279654e-06 -7.9325732641296762e-06 -1.4952005897565417e-05 2.3310763997788399e-05 8.8202200451225229e-06 -1.3533466604716129e-05 1.1544150380780375e-05 1.5567801887798684e-05 1.3605651372135304e-05 3.5747690080196908e-06 -1.3861775141143e-06
leaf_weight=339.9059042930603 480.21370363235474 243.35410118103027 490.60565185546875 144.50240087509155 274.66765332221985 271.89700365066528 243.19184875488281 205.68590259552002 229.73980188369751 218.8626503944397 168.57635021209717 341.71755218505859 262.24620056152344 303.02410125732422 183.99065017700195 108.4565486907959 300.84650135040283 292.84860420227051 352.6771993637085 164.67870187759399 226.33839750289917 192.4604024887085 4507.97179043293 168.97130298614502 237.42889738082886 238.1237006187439 240.31815266609192 414.01554679870605 2659.9324077367783 224.94830799102783 247.95830035209656 146.67110228538513 138.96834993362427 169.36949968338013 281.77975416183472 623.33870315551758 155.12794876098633 170.48644995689392 166.14850187301636 144.61415195465088 394.87994825839996 2284.1663565635681 322.08720278739929 151.27234745025635 114.19764971733093 234.77360272407532 663.75910258293152 228.47129845619202 171.26095151901245 1332.7520951032639 278.82729983329773 140.74559831619263 263.92344975471497 210.32714605331421 371.72929716110229 186.2568039894104 179.44789981842041 359.11565327644348 365.97400426864624 90.165999412536621 184.92720127105713 154.2282487154007 2521.8648991584778
leaf_count=35 38 27 19 11 30 21 18 20 27 34 25 48 32 23 13 11 39 21 55 19 32 13 980 16 29 27 20 51 716 30 46 26 19 20 38 139 20 26 12 21 75 444 47 22 15 38 110 24 34 269 97 26 36 34 72 23 27 70 65 19 20 23 612
internal_value=-1.20621e-14 -4.34031e-06 4.24653e-05 1.28216e-06 -1.55087e-05 3.39626e-05 -2.70115e-05 2.93211e-05 3.53724e-05 -1.19087e-05 1.08845e-05 -3.06013e-05 2.51463e-05 -2.00913e-05 2.4458e-05 -1.65404e-06 7.89781e-06 5.19662e-05 9.84313e-06 -2.35179e-05 -2.61865e-05 -2.85295e-05 5.87715e-07 -8.66394e-06 -1.49279e-05 8.90348e-07 -2.52589e-05 -7.33861e-06 -4.19642e-06 1.84137e-05 -2.62909e-05 -2.83992e-05 -2.3675e-05 -2.4447e-05 -2.02587e-05 5.32896e-06 1.34552e-05 -1.23688e-05 1.42394e-05 -2.94259e-05 4.52978e-07 -8.31397e-06 -3.76636e-06 -2.76057e-05 -2.53504e-05 1.56847e-05 1.77891e-05 -3.60194e-06 -1.81937e-05 -1.7722e-07 -3.28737e-06 -1.16434e-05 -1.28793e-05 -1.49919e-05 -1.78891e-05 1.75021e-05 1.43934e-05 -1.04277e-05 7.48346e-06 5.40063e-06 5.46746e-06 9.04419e-06 -1.94616e-06
internal_weight=28181.8 25568.5 2613.31 17006.8 8561.68 2122.71 2040.83 1850.81 1370.6 6520.85 3982.54 1797.64 848.008 1851.56 718.272 13024.3 3264.27 522.588 2797.68 1548.54 1457.73 1231.4 6921.34 4669.29 815.407 6812.88 1038.94 3853.88 6102.94 642.322 1273.87 798.618 456.9 1109.19 602.422 1380.33 417.374 413.841 1417.36 506.77 6574.76 3439.86 466.59 320.642 362.156 1251.21 898.533 5689.1 317.932 5840.72 5460.62 1155.7 986.725 722.802 512.475 534.281 348.024 577.978 1079.48 713.505 734.035 339.155 2800.69
internal_count=5049 4821 228 3530 1291 209 245 188 150 1046 623 227 102 234 88 2907 535 48 477 211 192 160 1405 812 133 1394 147 679 1502 82 181 127 79 162 80 262 52 53 215 82 1367 628 58 42 61 203 148 1449 60 1249 1425 184 168 132 98 75 52 104 223 158 118 43 709
is_linear=0
shrinkage=0.05


Tree=7
num_leaves=64
num_cat=0
split_feature=16 16 3 15 15 16 16 12 16 16 15 1 2 6 7 14 10 1 7 1 14 6 2 3 16 12 6 10 11 12 7 12 15 8 12 16 6 13 3 10 15 6 15 16 11 1 12 16 4 1 2 8 16 0 3 16 15 14 4 10 11 15 12
split_gain=0.00187722 0.000519661 0.000373674 0.000142021 0.00012799 0.000111849 7.56804e-05 7.50896e-05 0.000107607 6.25003e-05 5.8812e-05 4.78325e-05 4.22035e-05 3.58081e-05 2.69028e-05 3.10549e-05 2.67972e-05 2.17664e-05 2.15977e-05 2.01701e-05 1.93134e-05 1.91502e-05 2.32735e-05 1.67763e-05 1.65818e-05 1.64336e-05 1.44359e-05 1.40433e-05 1.23693e-05 1.18399e-05 1.80622e-05 1.09864e-05 1.07037e-05 1.0601e-05 9.42432e-06 9.24657e-06 1.19837e-05 9.24137e-06 8.82401e-06 8.38077e-06 8.11979e-06 1.19551e-05 7.54188e-06 6.07153e-06 5.80904e-06 5.36149e-06 4.97343e-06 4.80368e-06 5.46891e-06 6.7139e-06 5.37103e-06 4.65806e-06 4.48443e-06 3.39314e-06 3.28247e-06 3.13825e-06 3.10688e-06 3.09216e-06 4.45101e-06 3.08151e-06 4.96603e-06 3.06878e-06 3.03307e-06
threshold=1.2320906519889834 -0.23438487946987149 6.8687057495117196 2.2946079969406132 -0.90057703852653492 0.42201338708400732 4.7504560947418222 3.2143523693084721 -2.0794883966445918 -1.372517943382263 1.3132488727569582 -1.0831698775291441 1.8673611283302309 1.9524840116500857 0.645023673772812 -0.001049468060955405 0.10251856222748758 -2.7084817886352535 0.6294841766357423 -1.1658899188041685 -0.01955801714211702 0.23076318949460986 0.12781316787004474 0.66695117950439464 -0.62658566236495961 1.3479339480400088 -2.6553655862808223 0.1286837309598923 -0.075465980917215333 -0.53690621256828297 0.77601253986358654 0.33536224067211157 -0.65541756153106678 -0.02039656043052673 -0.6727444827556609 -1.8851420879364011 -0.091863710433244691 -0.46778964996337885 0.7497260868549348 -0.17803017050027845 -2.0034445524215694 0.17781300842761996 0.052238682284951217 0.17455963045358661 -0.15415994822978971 1.2166165113449099 -0.18925191462039945 -0.47123907506465906 -1.9020134210586546 -0.29239922761917109 0.8726281225681306 1.0091297626495364 -1.372517943382263 0.062126774340868003 0.058046840131282813 0.26323466002941137 0.59097960591316234 0.024861929006874565 0.58237376809120189 0.2231690585613251 0.013510461430996658 0.60442054271698009 0.46476213634014135
decision_type=2 2 2 2 2 2 2 2 2 2 2 2 2 2 2 2 2 2 2 2 2 2 2 2 2 2 2 2 2 2 2 2 2 2 2 2 2 2 2 2 2 2 2 2 2 2 2 2 2 2 2 2 2 2 2 2 2 2 2 2 2 2 2
left_child=1 4 3 6 7 16 11 8 -1 12 17 -2 19 23 21 -16 32 -7 -12 -6 -21 38 -23 24 40 35 -18 29 -19 30 -11 43 39 -30 -26 36 -22 -35 59 -3 52 -42 -29 -28 -33 -45 51 48 -31 57 53 -34 -10 -51 -37 -46 62 58 -50 -13 -61 -39 -55
right_child=2 5 -4 -5 9 10 -8 -9 13 27 18 14 -14 -15 15 -17 26 28 -20 20 25 22 -24 -25 34 -27 31 42 33 47 -32 44 46 37 -36 54 -38 61 -40 -41 41 -43 -44 45 55 -47 -48 -49 49 50 -52 -53 -54 56 -56 -57 -58 -59 -60 60 -62 -63 -64
leaf_value=-5.3721069350166312e-05 2.2104845376957757e-06 -1.8658790487563993e-05 7.5291402288696016e-05 5.5148851697201671e-05 -4.0290410682411088e-05 -1.2787268625131396e-05 4.8272302838004654e-05 4.2412389540203362e-06 -2.6265019318800388e-05 -1.0754696074038945e-05 1.624976236105392e-05 8.1696273064493809e-06 1.9770846539895452e-06 -1.1659126004724785e-07 1.8713658024637321e-05 4.1952681740245922e-05 -2.1271464853417732e-05 9.0594641758237391e-07 4.0099433925863411e-05 -8.2320837063268449e-06 -2.2021249849547689e-05 3.8858012680989437e-05 1.6454085198251319e-05 -3.501065036003833e-05 -2.0492506962649611e-05 -1.1062936641578193e-05 -8.2007020893783268e-07 -9.4687901074917531e-06 5.2426811370744164e-06 -5.3055239958803363e-07 -2.9443621317792452e-05 1.51329777982292e-05 -5.8007152654467116e-06 4.9201238354856903e-06 -3.0129385431850946e-06 -1.5008294005215099e-05 -3.7860972067227208e-05 1.3067566130800105e-05 2.453492628257613e-05 -4.4219208084702609e-06 -2.8265395180609913e-05 -9.8850169711302551e-06 1.8295041716286818e-06 1.7781243711797249e-06 1.890897409046316e-06 1.1190841750352322e-05 -2.8248426954336301e-06 -5.9161093148581008e-06 -9.6944351267493637e-06 -4.1162944552021196e-06 -1.6907526680325901e-05 -1.8470577177204693e-05 -3.8529349743433795e-05 -1.5898318715985548e-05 -2.3678699925197783e-05 9.232440491865718e-06 -4.1454712808083485e-06 -2.2567531524782534e-05 -2.126538623246519e-05 2.0250912883612474e-05 8.6594780251688798e-06 1.9607648138857943e-05 -6.8076410160936213e-06
leaf_weight=349.56555509567261 308.49135303497314 213.02465009689331 490.60565185546875 415.48925590515137 135.21655082702637 141.03645133972168 275.33325290679932 190.36569976806641 140.43445110321045 540.57365298271179 205.59329962730408 277.00840449333191 210.73624897003174 154.46249866485596 246.21820163726807 345.46395397186279 74.913449287414551 581.34745144844055 176.34715032577515 278.05750393867493 219.57890272140503 230.12600326538086 233.57470178604126 346.74340295791626 172.69040060043335 239.08885097503662 4612.3731392621994 213.65099954605103 954.07245874404907 146.96634721755981 169.92124819755554 149.75520014762878 716.96295177936554 306.35304760932922 139.32930135726929 159.02769899368286 261.74915242195129 591.520751953125 185.248703956604 200.81590104103088 252.10970115661621 136.29535007476807 478.52744889259338 1242.9133962392807 455.12079739570618 172.25099968910217 4891.4224534034729 1420.1775507926941 268.47604823112488 478.41920232772827 165.2501482963562 80.710500001907349 158.83630084991455 234.14025139808655 348.10725092887878 214.01255106925964 165.5802013874054 116.34339880943298 120.37595057487488 208.94484972953796 165.65905141830444 257.42405271530151 150.88345003128052
leaf_count=38 35 33 19 33 20 12 18 13 18 99 31 33 13 12 17 38 8 84 12 33 29 31 30 32 27 30 992 26 152 13 18 18 185 86 22 25 36 102 25 20 37 23 58 256 75 21 1255 300 51 82 25 9 23 45 48 35 25 20 21 31 21 41 29
internal_value=1.86739e-14 -4.7656e-06 3.49437e-05 2.8098e-05 -1.47333e-05 4.89982e-07 2.35588e-05 -2.56609e-05 -2.87371e-05 -1.13132e-05 8.84399e-06 2.04669e-05 -1.90867e-05 -2.29182e-05 2.34432e-05 3.22822e-05 -1.57134e-06 6.35988e-06 2.72615e-05 -2.1792e-05 -2.01307e-05 1.9422e-05 2.75727e-05 -2.5534e-05 -2.22471e-05 -2.28259e-05 5.58329e-07 -8.23074e-06 7.36349e-06 -9.37469e-06 -1.52243e-05 7.9719e-07 -3.9866e-06 9.14321e-06 -1.26872e-05 -2.56711e-05 -3.0635e-05 1.23644e-05 1.49057e-05 -1.17504e-05 -2.65847e-05 -2.18155e-05 -1.65788e-06 5.89326e-08 6.23124e-06 2.92382e-06 -3.42184e-06 -8.10238e-06 -9.78394e-06 -1.05842e-05 -8.54016e-06 -7.08268e-06 -3.27742e-05 -7.19646e-06 -2.09598e-05 4.23898e-06 -9.8728e-06 -1.54161e-05 -1.32764e-05 1.21681e-05 1.51249e-05 1.50507e-05 -1.23359e-05
internal_weight=28181.8 24799.7 3382.16 2891.56 8561.68 16238 2476.07 2040.83 1850.47 6520.85 3213.69 2200.74 1851.56 1500.9 1892.24 591.682 13024.3 2831.75 381.94 1640.83 1505.61 1300.56 463.701 1346.44 999.696 1227.55 6921.34 4669.29 2690.72 3977.11 710.495 6846.43 6102.94 2109.37 312.02 988.463 481.328 1155.3 836.861 413.841 687.676 388.405 692.178 6027.54 818.889 1415.16 5689.1 3266.61 1846.43 1699.47 1194.27 797.673 299.271 1029.02 507.135 669.133 550.604 505.195 388.852 651.612 374.604 848.945 385.024
internal_count=5049 4718 331 312 1291 3427 279 245 232 1046 520 261 234 194 226 55 2907 477 43 221 201 171 61 182 150 168 1405 812 465 728 117 1397 1502 381 49 138 65 229 110 53 101 60 84 1269 128 277 1449 611 311 298 206 194 41 181 73 110 99 92 72 85 52 143 74
is_linear=0
shrinkage=0.05


Tree=8
num_leaves=64
num_cat=0
split_feature=16 16 3 15 15 15 16 16 12 16 16 1 2 6 15 7 14 16 15 1 13 14 6 2 0 5 12 13 15 10 15 10 6 16 16 15 9 16 6 16 10 16 0 11 12 2 16 1 10 12 2 14 15 11 10 0 11 5 0 2 3 1 4
split_gain=0.00169419 0.000468994 0.000337241 0.000128174 0.000115511 0.000101133 7.98103e-05 6.83015e-05 6.77684e-05 9.71154e-05 5.64066e-05 4.31688e-05 3.80887e-05 3.23168e-05 2.8628e-05 2.42798e-05 2.8027e-05 2.25571e-05 1.82393e-05 1.82035e-05 1.81393e-05 1.74304e-05 1.66424e-05 1.56547e-05 1.60784e-05 1.49397e-05 1.48313e-05 1.45983e-05 1.31702e-05 1.26864e-05 1.17167e-05 1.08694e-05 1.00187e-05 1.01847e-05 9.64795e-06 9.5473e-06 9.02308e-06 8.34503e-06 1.08153e-05 8.14275e-06 7.19023e-06 9.81171e-06 6.89684e-06 6.83472e-06 6.2897e-06 5.94254e-06 5.25694e-06 5.1571e-06 5.10247e-06 4.5439e-06 4.43221e-06 4.35124e-06 4.76608e-06 4.0268e-06 3.57399e-06 3.53113e-06 3.23888e-06 4.23106e-06 3.64378e-06 3.1534e-06 2.96243e-06 2.83226e-06 2.8295e-06
threshold=1.2320906519889834 -0.23438487946987149 6.8687057495117196 2.2946079969406132 -0.90057703852653492 2.2946079969406132 0.42201338708400732 4.7504560947418222 3.2143523693084721 -2.0794883966445918 -1.372517943382263 -1.0831698775291441 1.8673611283302309 1.9524840116500857 -0.34258337318897242 0.645023673772812 -0.001049468060955405 1.0000000180025095e-35 -0.38194966316223139 -1.1658899188041685 -0.36677502095699305 -0.01955801714211702 -1.9830729961395261 0.25030702352523809 -0.92785406112670887 -0.36417306959629053 1.3479339480400088 -0.21182812005281446 0.66907998919487011 -0.0081382894422858936 0.14391773939132693 1.2441557049751284 -1.9830729961395261 -0.69834855198860157 1.0054485797882082 -1.8513534069061277 -0.72553655505180348 -1.8851420879364011 -0.091863710433244691 -1.1332865953445432 -0.50673010945320118 0.15123594552278521 -0.35470600426197046 0.11208574101328851 1.0000000180025095e-35 1.8136904239654543 1.546548664569855 1.2839474678039553 0.16902169585227969 0.35248783230781561 -0.48573596775531763 -0.023476587608456608 0.62829354405403148 -0.014249410480260847 -0.99369299411773671 -1.4073500037193296 0.080789312720298781 -0.17837379127740857 0.062126774340868003 0.12781316787004474 0.058046840131282813 0.066382527351379408 0.86916884779930126
decision_type=2 2 2 2 2 2 2 2 2 2 2 2 2 2 2 2 2 2 2 2 2 2 2 2 2 2 2 2 2 2 2 2 2 2 2 2 2 2 2 2 2 2 2 2 2 2 2 2 2 2 2 2 2 2 2 2 2 2 2 2 2 2 2
left_child=1 4 3 7 8 6 17 11 9 -1 12 -2 19 23 22 20 -17 18 25 -6 -13 -21 -8 29 -25 -3 37 46 32 35 40 53 -12 43 51 -11 -26 38 -23 -30 41 -19 -36 54 59 47 -22 56 -41 -42 -37 -16 -53 -24 -34 -54 58 -58 -35 -29 -39 -52 -20
right_child=2 5 -4 -5 10 -7 14 -9 -10 13 28 15 -14 -15 34 16 -18 30 62 21 27 26 31 24 36 -27 -28 44 39 -31 -32 -33 33 45 42 50 -38 60 -40 48 49 -43 -44 -45 -46 -47 -48 -49 -50 -51 61 52 55 -55 -56 -57 57 -59 -60 -61 -62 -63 -64
leaf_value=-5.1035017115280041e-05 2.0999600977610411e-06 -2.8019050121817189e-05 7.1526832693182587e-05 5.2391408816567574e-05 -3.8275890564777354e-05 4.6978587034261448e-05 -1.493373044802898e-05 4.5858687445321642e-05 4.0291775735181963e-06 -3.1764360099393266e-05 -2.2283307569675136e-05 3.070948771740934e-05 1.8782301889276007e-06 -1.1076267447385234e-07 3.1578661303117475e-06 1.7777974991608651e-05 3.985504697063336e-05 -3.0915611204419066e-06 -3.2090915452140288e-06 -7.8204797577286898e-06 1.3180205544006321e-05 -2.0920187797447206e-05 -1.0234837848174218e-06 -3.636078256420726e-05 -1.0968816514327553e-05 -8.1564695245957316e-06 -1.0509789879188617e-05 3.1315844289778323e-05 -1.1469408651881146e-05 -5.9869824115604938e-06 4.3303021647859565e-06 1.5081355846006145e-05 -1.5596707205660313e-05 -4.3291883724893662e-06 2.480968103742311e-05 -2.4426715617991649e-05 -2.9038018017997866e-05 -1.4257879198807918e-05 -3.5967923173868997e-05 -3.6620590927499226e-06 -6.7095797724634909e-07 -1.8503590411047332e-05 1.2385435242636117e-05 -2.4133548503028673e-05 1.5648674390566848e-05 1.5952812708954077e-06 2.296029938964262e-06 -1.9169473833143178e-05 4.4691217506819374e-06 7.0708444050756038e-06 -1.8497316458525935e-05 7.5692137242056762e-06 1.7444156601727975e-05 6.0920578386414829e-06 -8.7853937262786409e-06 9.1330299712828193e-06 -1.7941824042339363e-05 -6.4597533088581968e-06 -9.1367573102848647e-06 2.0972685821066612e-05 -2.2494765073837422e-05 -6.8002557289986081e-06 -9.0809738766492944e-06
leaf_weight=349.56555509567261 308.49135303497314 138.35079956054688 490.60565185546875 415.48925590515137 135.21655082702637 116.02950000762939 140.39265155792236 275.33325290679932 190.36569976806641 183.92420244216919 147.64939832687378 244.93710088729858 210.73624897003174 154.46249866485596 259.36734986305237 246.21820163726807 345.46395397186279 653.51150166988373 3175.8720026016235 278.05750393867493 293.53835296630859 219.57890272140503 628.81320309638977 384.42615127563477 130.0662477016449 299.8444492816925 239.08885097503662 144.17800378799438 275.1402006149292 147.84110283851624 1207.9132952690125 167.31609869003296 332.29594731330872 913.01175689697266 184.25140166282654 144.89440226554871 147.37465047836304 159.02769899368286 261.74915242195129 876.74540281295776 6941.1809370517731 122.64879870414734 283.66779780387878 127.28194880485535 288.83880519866943 179.95194721221924 178.33874988555908 96.441599369049072 247.37239980697632 194.85335230827332 110.82395052909851 691.45410680770874 299.44080281257629 290.77340197563171 458.07764530181885 222.9597499370575 152.47890138626099 169.33230042457581 693.50645041465759 150.73070192337036 348.10725092887878 97.088200569152832 219.32945251464844
leaf_count=38 35 14 19 33 20 8 10 18 13 27 21 34 13 12 31 17 38 194 782 33 36 29 87 27 19 65 30 20 33 17 223 29 72 200 23 26 25 25 36 128 1545 16 48 18 39 17 21 21 32 31 23 161 45 48 70 34 28 33 139 21 48 18 33
internal_value=-5.80756e-14 -4.52732e-06 3.31965e-05 2.66931e-05 -1.39966e-05 4.65483e-07 1.30729e-07 2.23808e-05 -2.43779e-05 -2.73002e-05 -1.07476e-05 1.94435e-05 -1.81324e-05 -2.17723e-05 7.24388e-06 2.2271e-05 3.06681e-05 -1.60915e-06 -4.82745e-06 -2.07024e-05 1.84509e-05 -1.91242e-05 1.26668e-06 -2.42573e-05 -2.97404e-05 -1.44277e-05 -2.16846e-05 1.56065e-05 -7.81921e-06 -1.89561e-05 -2.56428e-07 3.35925e-06 -9.55626e-06 -8.95444e-06 1.1023e-05 -2.25284e-05 -2.0567e-05 -2.43876e-05 -2.91032e-05 -3.75974e-06 -9.5666e-07 -5.52697e-06 1.72777e-05 -1.33807e-05 2.0893e-05 -7.11212e-06 9.0667e-06 -7.88599e-06 -1.87272e-06 -4.59564e-07 -1.77136e-05 9.03639e-06 1.02925e-05 1.22645e-06 -1.16491e-05 1.3897e-05 -7.32167e-06 -1.19001e-05 -6.40453e-06 2.60294e-05 -1.99118e-05 -1.30352e-05 -3.58841e-06
internal_weight=28181.8 24799.7 3382.16 2891.56 8561.68 16238 16121.9 2476.07 2040.83 1850.47 6520.85 2200.74 1851.56 1500.9 3168.44 1892.24 591.682 12953.5 3833.4 1640.83 1300.56 1505.61 1227.3 1346.44 661.867 438.195 1227.55 1055.62 4669.29 684.572 9120.11 1086.9 3270.03 3122.38 1941.14 536.731 277.441 988.463 481.328 1399.26 7912.19 776.16 467.919 917.656 583.748 2204.72 471.877 2024.77 1124.12 7136.03 352.807 1473.22 1213.85 919.587 790.374 522.401 1928.33 321.811 1606.52 294.909 507.135 207.912 3395.2
internal_count=5049 4718 331 312 1291 3427 3419 279 245 232 1046 261 234 194 516 226 55 2903 894 221 171 201 174 182 71 79 168 137 812 111 2009 164 619 598 342 94 44 138 65 193 1786 210 71 160 80 438 57 421 160 1576 67 271 240 135 142 79 400 61 339 41 73 41 815
is_linear=0
shrinkage=0.05


Tree=9
num_leaves=64
num_cat=0
split_feature=16 16 15 12 16 15 15 7 12 16 16 15 8 6 10 10 13 6 2 10 1 7 14 0 10 16 16 16 3 12 15 4 10 6 6 14 10 15 10 15 15 7 15 16 10 16 0 11 11 3 10 11 10 10 6 1 2 7 11 3 0 16 16
split_gain=0.00153118 0.000478537 0.000233789 0.000151915 0.000132501 0.000119058 9.96255e-05 6.45193e-05 5.96844e-05 9.01779e-05 5.89745e-05 5.093e-05 4.63645e-05 4.19205e-05 3.74646e-05 3.6114e-05 2.948e-05 2.48057e-05 1.93557e-05 1.91374e-05 1.85856e-05 1.8382e-05 1.71989e-05 1.46996e-05 1.42043e-05 1.41661e-05 1.38149e-05 1.25766e-05 1.18612e-05 1.14698e-05 1.09911e-05 1.061e-05 9.96492e-06 8.78593e-06 8.43796e-06 7.06932e-06 7.7647e-06 7.06205e-06 6.82691e-06 6.37432e-06 5.43629e-06 5.37505e-06 5.21115e-06 5.19419e-06 5.02373e-06 4.50273e-06 5.22024e-06 4.754e-06 4.1876e-06 4.08686e-06 3.8762e-06 3.97809e-06 6.72072e-06 3.85481e-06 3.8318e-06 3.4385e-06 5.07759e-06 8.25287e-06 3.94713e-06 3.33662e-06 3.19211e-06 2.94254e-06 2.90326e-06
threshold=1.5837482213974001 -0.13819074630737302 3.3514950275421147 2.4710083007812504 0.42201338708400732 -0.90057703852653492 0.26911726593971258 1.2988296747207644 3.2143523693084721 -2.0794883966445918 -1.372517943382263 0.61711412668228161 1.3093287348747256 -2.6553655862808223 1.1687491536140444 0.11451093479990961 -0.30065497756004328 -0.90669831633567799 1.0665079951286318 0.13122756779193881 -2.7084817886352535 1.0246726274490359 0.011390797328203918 -0.92785406112670887 0.1286837309598923 -2.325434565544128 2.4224321842193608 0.82335880398750316 1.7356383204460146 -1.6062272191047666 0.91395083069801342 -0.68687516450881947 0.00512599851936102 0.52145391702651989 -0.026312645524740216 -0.022169717587530609 0.98195895552635204 -1.4313743710517881 0.17992384731769565 1.1823218464851382 -0.058375367894768708 -0.4163661897182464 -0.38194966316223139 0.077426411211490645 0.1513965502381325 0.75884759426116954 -1.4073500037193296 -0.0066871591843664637 -0.044815955683588975 0.24691181629896167 -1.0449330806732176 -0.095756798982620225 0.095613870769739165 -1.4297791123390196 0.55006384849548351 -0.52754309773445118 0.51472687721252453 -0.035090923309326165 0.024023436009883884 -0.053713891655206673 0.66445159912109386 0.59850645065307628 -0.81655454635620106
decision_type=2 2 2 2 2 2 2 2 2 2 2 2 2 2 2 2 2 2 2 2 2 2 2 2 2 2 2 2 2 2 2 2 2 2 2 2 2 2 2 2 2 2 2 2 2 2 2 2 2 2 2 2 2 2 2 2 2 2 2 2 2 2 2
left_child=1 5 3 6 19 8 14 26 9 -1 15 20 38 -12 17 22 18 -2 32 28 -6 -18 48 -19 29 -24 -8 44 53 -15 43 -27 33 34 37 36 -29 -11 -13 41 -26 -33 49 -21 -22 46 -40 -47 -7 -31 62 -52 -53 -3 -46 -37 57 58 -57 -42 -59 -56 -44
right_child=2 4 -4 -5 11 10 7 -9 -10 16 13 12 -14 24 -16 -17 21 23 -20 30 27 -23 25 -25 40 31 -28 35 -30 42 -32 39 -34 -35 -36 55 -38 -39 45 -41 59 -43 50 -45 54 47 -48 -49 -50 -51 51 52 -54 -55 61 56 -58 60 -60 -61 -62 -63 -64
leaf_value=-4.8483265080178575e-05 -1.7001219014427081e-06 -9.6889280861770351e-06 8.0146874728851433e-05 6.9753585156285129e-05 -1.1665833346994565e-05 -1.796540037037965e-05 1.9266083811070363e-05 5.4524085989806911e-05 3.8277194332710119e-06 -3.2770990639554058e-05 -3.5857633707752464e-05 5.7663995365310418e-06 4.4923879520135822e-05 -2.2793161234142869e-05 3.2236831095591132e-05 -1.4401736100095435e-06 -1.9000148676944743e-05 2.2747089349624654e-05 -3.985419967218642e-05 -7.5909246768374697e-07 -2.4257931786963239e-06 3.0132293854659808e-06 -3.3831316037221622e-05 5.8838420753351427e-06 -8.3038242257294886e-06 -2.8162088195929813e-05 3.785009528962302e-05 -6.6603067415699051e-07 -1.8804664763499406e-05 -8.63654857010928e-06 1.2187762913662119e-05 -2.5435500672707984e-05 -1.3100572858043464e-05 -3.4437349800914779e-05 -1.4372733250353356e-05 6.592507409052489e-06 1.2181679710516727e-05 -1.8206190919095459e-05 1.844792872849609e-05 -7.2438078382499059e-06 -1.6250125541910698e-06 -1.4187328081732159e-05 -1.3809109261564927e-05 2.3111918780210432e-06 3.3117444540282059e-06 2.5156131512844486e-05 5.4419290134147332e-06 1.5286922083659145e-05 -7.8214762623817104e-06 -1.6812743414674171e-05 -1.1733458538121499e-06 -5.7863066909888461e-06 -1.799923886053023e-05 -2.3939448780590962e-06 5.0575003108307698e-06 1.3674344507012041e-05 6.6205031830116541e-06 2.6500640397706961e-05 1.4952221345165221e-06 5.1985958942332502e-06 1.6187796647727735e-05 1.6730304701823242e-05 -7.1951295888756594e-06
leaf_weight=349.56555509567261 229.76450300216675 187.05199813842773 281.78125333786011 235.99055242538452 141.03645133972168 166.89890241622925 250.94015216827393 414.52470254898071 190.36569976806641 197.48155188560486 123.20014786720276 177.54665017127991 145.04155111312866 119.01989960670471 327.65350198745728 303.02410125732422 194.44260048866272 422.0256552696228 170.73300170898438 2961.0142461061478 298.39325046539307 185.11894726753235 258.6714038848877 186.26685094833374 187.12774991989136 295.99704837799072 166.25695180892944 270.38410210609436 115.52465057373047 579.6857545375824 215.15180158615112 202.19400238990784 254.74395203590393 172.7976508140564 238.3390519618988 215.0117027759552 208.12314605712891 143.85095143318176 152.14235210418701 140.4484007358551 426.49574756622314 223.72814702987671 266.76964783668518 2575.8902866840363 754.62205362319946 214.41745066642761 156.5247495174408 283.16465353965759 260.60015368461609 207.56084871292114 437.75674867630005 2687.7845053672791 117.57360172271729 5681.5405006408691 108.51765012741089 259.73234915733337 196.24935221672058 165.81050539016724 89.431950092315674 308.90820097923279 137.05690121650696 107.44710254669189 438.89925074577332
leaf_count=38 21 37 18 19 12 19 31 20 13 25 17 23 13 11 32 23 29 38 12 705 40 14 33 18 23 35 19 29 6 127 25 38 23 27 40 32 27 31 21 19 60 37 57 516 155 30 27 39 30 39 60 560 13 1314 26 53 25 17 20 39 28 18 103
internal_value=-3.34365e-14 -3.64839e-06 3.72303e-05 3.18157e-05 1.73923e-06 -1.22999e-05 2.73335e-05 4.05533e-05 -2.28682e-05 -2.5533e-05 -9.44054e-06 9.50026e-06 1.8533e-05 -6.99767e-06 1.79013e-05 -1.72258e-05 -2.03821e-05 1.22965e-05 -2.42869e-05 -9.59267e-07 6.04593e-06 -8.26383e-06 -2.03148e-05 1.75833e-05 -6.38226e-06 -2.35687e-05 2.6672e-05 6.93466e-06 -2.93878e-06 -7.46295e-06 1.10011e-06 -2.04904e-05 -2.16481e-05 -2.45418e-05 -2.15919e-05 9.96891e-06 4.92198e-06 -2.66328e-05 1.46422e-05 -1.64811e-05 -6.94879e-07 -1.95271e-05 -7.07769e-06 6.69272e-07 3.24806e-06 1.65968e-05 1.18526e-05 1.95397e-05 -1.17817e-05 -1.07922e-05 -6.33714e-06 -5.60641e-06 -6.29816e-06 -2.62646e-06 4.99241e-06 1.22401e-05 1.36716e-05 1.57939e-05 1.05549e-05 1.24126e-06 2.18338e-05 1.0865e-05 -9.69547e-06
internal_weight=28181.8 25666.6 2515.2 2233.42 15816.8 9849.78 1997.43 831.722 2097.44 1907.07 7752.34 4080.65 1128.84 5900.78 1165.71 1851.56 1557.51 838.057 1177.95 11736.2 2951.82 379.562 1548.54 608.293 5777.58 1121.04 417.197 2810.78 5984.12 4855.05 5752.06 862.368 1007.21 752.469 579.672 1541.8 478.507 341.333 983.796 566.371 922.532 425.922 4736.03 5536.9 1268.98 806.249 308.667 497.582 427.499 787.247 3948.78 3243.11 2805.36 5868.59 970.587 1063.29 848.281 652.032 349.164 735.404 302.867 215.965 705.669
internal_count=5049 4833 216 198 3238 1595 179 70 252 239 1343 635 153 1109 109 234 201 77 158 2603 482 43 211 56 1092 162 50 470 1357 970 1246 129 146 123 96 231 56 56 140 94 122 75 959 1221 239 117 48 69 49 166 793 633 573 1351 199 175 143 118 73 99 45 44 160
is_linear=0
shrinkage=0.05


Tree=10
num_leaves=64
num_cat=0
split_feature=16 16 3 16 15 12 13 12 16 16 15 15 2 7 13 16 12 1 1 2 10 1 16 12 15 1 12 2 16 15 0 11 16 15 10 7 10 12 10 2 4 11 6 0 10 11 3 6 15 12 1 1 14 16 2 15 8 16 4 11 16 12 14
split_gain=0.0013826 0.000426474 0.000228569 0.000126968 9.40988e-05 8.74373e-05 5.93789e-05 5.54811e-05 8.03627e-05 4.58117e-05 4.52326e-05 3.89905e-05 3.3177e-05 3.18974e-05 2.82726e-05 2.54631e-05 2.47444e-05 2.19357e-05 2.11364e-05 1.9977e-05 1.99551e-05 1.60776e-05 1.53758e-05 1.53681e-05 1.51331e-05 1.25022e-05 1.14274e-05 1.0834e-05 1.17037e-05 9.81397e-06 9.60752e-06 8.36025e-06 1.07764e-05 8.34394e-06 7.20913e-06 7.14185e-06 6.57854e-06 6.12609e-06 5.87046e-06 5.83286e-06 6.04239e-06 5.72908e-06 5.69207e-06 8.99029e-06 5.44882e-06 4.67348e-06 4.69119e-06 4.36127e-06 3.97366e-06 3.95935e-06 3.95914e-06 3.94746e-06 5.40991e-06 5.86221e-06 4.10651e-06 3.72941e-06 3.57243e-06 3.29879e-06 3.06841e-06 5.33555e-06 2.93757e-06 3.30218e-06 2.9689e-06
threshold=1.546548664569855 -0.23438487946987149 6.8687057495117196 0.42201338708400732 -0.90057703852653492 1.4268932938575747 4.6943628787994394 2.6109226942062382 -2.5780957937240596 -1.372517943382263 1.0100929141044619 0.29483835399150854 1.8673611283302309 1.0246726274490359 -0.30065497756004328 2.4224321842193608 1.3905103206634524 0.48025314509868627 -1.0238949060440061 0.99715161323547374 0.10251856222748758 -1.1658899188041685 0.85358679294586193 1.3479339480400088 1.7468048930168154 -2.4190047979354854 -0.07879243046045302 0.51472687721252453 -0.92748570442199696 0.91395083069801342 -1.4764928817749021 -0.033024247735738747 -2.0794883966445918 -0.65541756153106678 -0.17803017050027845 1.2617951035499575 0.1513965502381325 0.33536224067211157 0.24697209149599078 0.22475487738847735 0.52945023775100719 -0.0032233636593446131 -0.56892421841621388 0.062126774340868003 -1.139055013656616 -0.051584366708993905 0.089745823293924346 0.19436713308095935 0.57619476318359386 -0.18925191462039945 0.027914479374885563 -0.29239922761917109 -0.027728606946766373 -0.59876444935798634 0.47595900297164923 0.36736358702182775 1.0091297626495364 0.1124887876212597 0.13183080404996875 0.01737923547625542 0.63385099172592174 0.62154287099838268 -0.0058287617284804574
decision_type=2 2 2 2 2 2 2 2 2 2 2 2 2 2 2 2 2 2 2 2 2 2 2 2 2 2 2 2 2 2 2 2 2 2 2 2 2 2 2 2 2 2 2 2 2 2 2 2 2 2 2 2 2 2 2 2 2 2 2 2 2 2 2
left_child=1 4 5 20 7 6 11 8 -1 12 18 17 21 -12 16 -13 27 39 41 -16 33 -6 36 24 31 -22 30 28 50 37 -11 55 -33 34 -3 45 -20 57 51 40 -2 -5 43 -32 -44 -24 -47 -30 -34 56 -10 52 -28 54 -54 -23 -35 -27 -48 -60 61 -38 -62
right_child=2 3 -4 10 9 -7 -8 -9 14 26 13 15 -14 -15 19 -17 -18 -19 22 -21 25 23 35 -25 -26 29 38 -29 47 -31 42 32 48 49 -36 -37 60 -39 -40 -41 -42 -43 44 -45 -46 46 58 -49 -50 -51 -52 -53 53 -55 -56 -57 -58 -59 59 -61 62 -63 -64
leaf_value=-5.2934818174693176e-05 2.0122099435959237e-05 -1.6694133878687165e-05 6.5399252402580338e-05 5.5464022494935692e-07 -3.5278512117328162e-05 4.7245748397371445e-05 4.8391681855233982e-05 1.8038462286586551e-06 -2.8836393864367275e-05 -2.0992378627781321e-05 1.403026018415816e-05 1.6377628360856765e-05 2.3114024685759274e-06 3.8168689776646511e-05 -2.082882350163349e-05 3.8086390871001331e-05 -4.2370988389479951e-05 2.7814764034781268e-05 -2.2972598163038891e-06 2.8625685381821158e-06 -1.6352507214028389e-05 -1.0208250216842493e-05 6.9702089963562678e-06 -7.4245336905011494e-06 -1.0611462157860888e-05 -9.7187060274344849e-07 -3.7562431960224761e-06 -2.9228151446267133e-05 -7.026254268540145e-06 1.0729717524874598e-05 -2.2229095863337644e-05 -3.6657548320073053e-05 -2.640973232254689e-05 -5.0770874476099509e-06 -3.489874876552668e-06 1.9154922249119215e-06 2.9017828615182413e-06 4.7021854365467671e-06 3.4071834160035653e-07 4.3267328688732416e-06 7.1627756416092804e-06 -1.1072711382128416e-05 -1.3126522497746647e-05 -4.7868430219207771e-06 -5.0313862340164363e-06 1.03138382397213e-05 2.2374474767202507e-05 -1.8431687688424354e-05 -1.5686606142230316e-05 -2.4007314956752972e-06 -1.8798468437617602e-05 -4.8587697690067973e-06 -2.1848259431820602e-05 -6.5757784905614493e-06 -9.8519217328633723e-06 -2.1209884105215317e-05 -1.6172694800877751e-05 1.5616708857726033e-06 1.8693564551604011e-05 6.140614969305765e-06 1.4706087103114053e-05 1.3139074849795923e-05 5.6497987110019979e-06
leaf_weight=223.69275283813477 169.23130369186401 213.02465009689331 490.60565185546875 303.97445273399353 135.21655082702637 444.64915609359741 193.08870506286621 218.3823504447937 214.48090171813965 194.76770305633545 534.28105401992798 226.65800142288208 210.73624897003174 183.99065017700195 171.331050157547 334.3084020614624 167.56125259399414 188.63375091552734 300.84650135040283 185.11894726753235 108.4565486907959 125.92055082321167 259.17550230026245 313.26255130767822 322.16265344619751 3932.4399950504303 323.28190135955811 331.61795091629028 206.17765378952026 238.1237006187439 180.55669760704041 190.80530214309692 206.53094983100891 716.96295177936554 200.81590104103088 166.14850187301636 623.33870315551758 734.03539824485779 396.47699737548828 374.14980316162109 191.9883508682251 162.61515092849731 289.70494961738586 125.03749871253967 735.89794945716858 398.43439960479736 199.7969536781311 141.23000025749207 148.5247495174408 4891.4224534034729 181.23980164527893 1859.9117023944855 168.89214944839478 271.25575113296509 123.50259852409363 198.40260291099548 80.710500001907349 1908.2838904857635 270.6219494342804 123.18109965324402 163.8922016620636 90.165999412536621 202.08180260658264
leaf_count=23 22 33 19 38 20 39 21 16 33 19 75 28 13 13 27 26 18 23 39 14 11 20 42 38 32 868 44 31 34 27 35 27 34 185 20 12 139 118 50 31 19 20 68 24 134 58 28 25 24 1255 24 331 31 59 17 26 9 381 49 26 24 19 41
internal_value=1.16014e-14 -3.5406e-06 3.4641e-05 1.04116e-06 -1.26417e-05 2.75321e-05 2.23084e-05 -2.20115e-05 -2.48653e-05 -9.70926e-06 8.85386e-06 1.89168e-05 -1.63645e-05 2.02135e-05 -2.09379e-05 2.9315e-05 -2.44995e-05 1.2604e-05 6.35428e-06 -8.52492e-06 -1.3478e-06 -1.87631e-05 7.99737e-06 -1.72798e-05 -1.98691e-05 4.89981e-07 -7.0702e-06 -2.17132e-05 -1.83597e-05 7.58102e-07 -1.06203e-05 -2.32965e-05 -2.70742e-05 -3.43203e-06 -1.02868e-05 1.16553e-05 4.24125e-06 3.96951e-07 -5.34676e-06 8.70216e-06 1.32342e-05 -3.49771e-06 -9.10275e-06 -1.50924e-05 -7.31804e-06 1.29487e-05 1.45106e-05 -1.16629e-05 -2.19241e-05 -2.9334e-06 -2.4239e-05 -6.16768e-06 -8.9125e-06 -1.18699e-05 -1.67812e-05 -1.69384e-05 -6.19977e-06 -1.44111e-07 1.73276e-05 1.4767e-05 6.06351e-06 4.19548e-06 9.70543e-06
internal_weight=28181.8 25568.5 2613.31 17006.8 8561.68 2122.71 1678.06 2040.83 1822.45 6520.85 3982.54 1484.97 1851.56 718.272 1598.76 560.966 1242.31 924.003 3264.27 356.45 13024.3 1640.83 2797.68 1505.61 1192.35 6921.34 4669.29 1074.75 743.128 6812.88 1525.96 870.184 545.861 6102.94 413.841 1417.36 1380.33 6574.76 3143.32 735.369 361.22 466.59 1331.2 305.594 1025.6 1251.21 992.034 347.408 355.056 5689.1 395.721 2746.84 886.932 563.65 292.395 324.323 797.673 5840.72 593.6 393.803 1079.48 713.505 365.974
internal_count=5049 4821 228 3530 1291 209 170 245 229 1046 623 149 234 88 206 54 165 95 535 41 2907 221 477 201 163 1405 812 147 116 1394 280 131 85 1502 53 215 262 1367 532 72 41 58 261 59 202 203 161 59 58 1449 57 482 151 107 48 46 194 1249 103 75 223 158 65
is_linear=0
shrinkage=0.05


Tree=11
num_leaves=64
num_cat=0
split_feature=16 16 15 16 12 15 15 16 6 15 3 16 7 10 1 5 0 1 14 8 7 16 10 15 10 12 16 10 15 4 15 10 2 16 12 16 11 3 4 10 2 12 16 1 3 15 15 0 12 5 15 10 16 12 11 14 2 7 3 1 0 10 14
split_gain=0.00125 0.000418191 0.0001738 0.00012167 0.000116537 0.000103089 8.16487e-05 5.34636e-05 5.03717e-05 4.64739e-05 4.5632e-05 4.16448e-05 3.86398e-05 3.84693e-05 3.61151e-05 3.12638e-05 2.66676e-05 1.95242e-05 1.66436e-05 1.6612e-05 1.66498e-05 1.45122e-05 1.41205e-05 1.35345e-05 1.27664e-05 1.19295e-05 1.04408e-05 9.278e-06 9.00795e-06 1.08143e-05 8.77175e-06 8.02943e-06 7.70262e-06 7.56233e-06 6.82451e-06 6.60576e-06 6.10232e-06 5.99141e-06 5.91317e-06 6.35761e-06 5.36757e-06 5.36268e-06 5.01461e-06 4.79231e-06 5.16808e-06 4.72344e-06 6.32209e-06 4.51081e-06 4.38206e-06 4.34571e-06 4.10077e-06 3.82789e-06 4.2689e-06 3.71908e-06 5.58704e-06 3.60721e-06 4.21019e-06 3.38496e-06 3.37847e-06 3.37672e-06 3.12483e-06 3.0647e-06 2.9604e-06
threshold=1.8518199324607851 -0.078238133341073976 3.3514950275421147 0.42201338708400732 2.4710083007812504 -0.82106143236160267 0.26911726593971258 -1.372517943382263 1.9524840116500857 0.54501849412918102 1.7356383204460146 -2.190118551254272 1.2988296747207644 1.1687491536140444 -2.4190047979354854 -1.5716765522956846 -0.92785406112670887 -0.52754309773445118 -0.01955801714211702 -0.62648680806159962 0.2758378684520722 1.2320906519889834 0.13340800255537036 -2.534126758575439 0.24279294908046725 -0.52218595147132862 -2.9889016151428218 -0.0081382894422858936 0.38460931181907659 -0.18806898593902585 0.91395083069801342 0.17992384731769565 0.83155998587608349 -0.69834855198860157 0.52695590257644664 1.052253842353821 0.13030324131250384 0.44318497180938726 0.86599999666214 -0.41660562157630915 -0.35105904936790461 -0.69080629944801319 0.67450374364852916 0.48025314509868627 0.0114743709564209 -0.71670341491699208 0.014196859672665598 -1.5344281196594236 0.33536224067211157 -0.39774721860885615 1.7468048930168154 -0.7393093705177306 0.034607028588652618 0.75517737865448009 0.010602788999676706 -0.00052987720118835558 0.70581349730491649 0.17198482900857928 -0.053713891655206673 0.066382527351379408 0.29266990721225744 0.13595183193683627 -0.02950731664896011
decision_type=2 2 2 2 2 2 2 2 2 2 2 2 2 2 2 2 2 2 2 2 2 2 2 2 2 2 2 2 2 2 2 2 2 2 2 2 2 2 2 2 2 2 2 2 2 2 2 2 2 2 2 2 2 2 2 2 2 2 2 2 2 2 2
left_child=1 5 4 22 6 8 13 15 11 17 31 -1 -8 16 -9 -7 -2 32 -17 -13 23 42 34 -21 33 -22 -20 43 37 50 48 -11 -5 36 51 -33 55 40 41 -40 -28 49 -19 44 -25 -23 -47 -44 -24 -35 -30 52 60 54 -37 62 57 -57 -26 -46 -3 -43 -16
right_child=2 3 -4 9 -6 7 12 14 -10 10 -12 19 -14 -15 24 18 -18 21 26 20 25 45 30 27 58 -27 28 -29 29 -31 -32 35 -34 38 -36 53 -38 -39 39 -41 -42 61 47 -45 59 46 -48 -49 -50 -51 -52 -53 -54 -55 -56 56 -58 -59 -60 -61 -62 -63 -64
leaf_value=-3.8477197377099153e-05 1.7691972904258845e-05 -8.2869756741220237e-06 7.3490148398794449e-05 2.1912827944134276e-06 6.463606410939166e-05 4.5407825752972685e-06 2.565758073345155e-05 -2.8561122955406334e-05 5.5095421178946099e-07 4.5118019448021876e-06 4.3141057125873997e-05 -8.1402724080951299e-06 4.9297669791123212e-05 3.2322555680481677e-05 -1.0273444361189222e-05 -8.0003745636502221e-06 -3.6153141616044973e-06 2.4011874958267487e-06 -3.1388606881759532e-05 -3.0457451225869748e-05 -3.4951762891955396e-05 9.3653496148615169e-06 2.9645974668147086e-07 -2.0537651588013014e-05 -1.6014944307264616e-06 -2.0499671944515001e-05 -2.6314482614957752e-05 -1.7713176557202197e-06 -2.5908452048608239e-05 -7.7287833479403686e-06 1.1467710404335104e-05 1.1674547900948117e-05 -8.7567729923031303e-06 -1.8415083146819574e-05 -1.5099962391760977e-05 2.2628012310745401e-05 -1.8566080066517277e-05 -3.2324356157694243e-05 -6.3591369051042928e-06 -1.9077111232912699e-05 -1.3378452003574685e-05 -4.1966308809966689e-06 -7.8197785961455399e-07 -2.6492725032109616e-05 -1.4397819025226649e-05 2.336720069345518e-05 1.0245632102793274e-05 9.2380636028625824e-06 4.8072060653526543e-06 -6.5520244705515931e-06 -1.4989628830919082e-05 -1.603340555731046e-06 -1.4695897360145652e-05 2.6797421363715588e-05 9.5846777712518981e-06 -1.0177670619179516e-05 -1.5266604342754818e-05 -2.059411728574915e-06 5.9195919042863347e-06 -1.941418506305328e-06 -1.1368562727308978e-06 1.7464339549787564e-06 -1.9754109228159398e-06
leaf_weight=350.05360460281372 396.03350496292114 250.15589928627014 281.78125333786011 601.56995511054993 229.66345262527466 172.66304969787598 300.19945287704468 172.53849673271179 260.73039817810059 195.87804985046387 148.76355123519897 269.8253493309021 407.47240257263184 271.01695251464844 158.65235018730164 340.71495485305786 233.38710165023804 657.79205417633057 185.84970235824585 152.05500268936157 306.00240135192871 252.85170078277588 4731.0339359045029 189.37705230712891 369.23149633407593 267.71855020523071 166.06590104103088 127.12770199775696 182.13234853744507 296.17835378646851 200.29910135269165 514.42915415763855 219.19940090179443 111.23680114746094 103.76410031318665 191.10995030403137 154.30000042915344 144.61415195465088 304.56160140037537 145.07105040550232 155.06724905967712 3254.0772120952606 128.30454802513123 103.10755109786987 133.83780026435852 231.650803565979 152.05110120773315 901.54770517349243 607.56504821777344 252.28179979324341 162.90379858016968 4525.2196999788284 107.2253485918045 137.2221508026123 143.93380188941956 422.74025106430054 264.86999273300171 184.41384863853455 250.69035053253174 91.671900510787964 392.65820050239563 232.41730117797852 333.25600028038025
leaf_count=36 35 62 18 87 18 9 36 24 19 26 13 37 19 23 30 38 19 149 21 18 28 27 1094 37 53 25 32 16 28 40 23 81 17 11 13 28 21 21 52 27 26 769 14 17 27 33 24 149 99 53 14 963 23 18 17 83 30 26 35 17 124 33 44
internal_value=7.51392e-15 -3.00301e-06 3.69254e-05 2.26946e-06 3.1319e-05 -1.06113e-05 2.65608e-05 -8.06916e-06 -2.01144e-05 9.21159e-06 1.70419e-05 -2.28209e-05 3.92694e-05 1.65728e-05 -5.98609e-06 -1.56928e-05 9.7913e-06 5.89684e-06 -1.78315e-05 -1.94806e-05 -2.17126e-05 8.23796e-06 -5.76784e-07 -1.7038e-05 -5.38106e-06 -2.82079e-05 -2.04224e-05 -1.3875e-05 -1.85813e-05 -1.47372e-05 1.19522e-06 1.37587e-05 -7.32568e-07 -6.10787e-06 -2.40146e-06 1.55944e-05 -9.14151e-06 -2.38736e-05 -5.03668e-06 -1.04625e-05 -2.0068e-05 -4.40301e-06 5.81148e-06 -1.68456e-05 -1.44481e-05 1.46711e-05 1.81675e-05 7.98971e-06 8.0981e-07 -1.01821e-05 -2.07533e-05 -2.15168e-06 -5.45999e-06 1.98642e-05 1.70246e-05 -8.07531e-06 -1.00066e-05 -7.71187e-06 1.43996e-06 -9.33417e-06 -3.91938e-06 -3.80045e-06 -4.65173e-06
internal_weight=28181.8 26062.3 2119.55 15394.2 1837.77 10668 1608.11 8416.53 2251.51 4476.3 1331.34 1990.78 707.672 900.438 6610.34 1806.19 629.421 3144.97 1633.53 1640.72 1370.9 2324.2 10917.9 797.177 6437.8 573.721 1292.81 645.122 1106.96 641.215 5538.9 1182.57 820.769 5817.88 5379.02 986.695 1518.23 465.747 4299.65 449.633 321.133 3850.01 1687.64 517.994 414.887 636.554 383.702 1029.85 5338.6 363.519 345.036 5275.26 750.039 472.266 335.044 1363.93 872.024 607.154 619.922 225.51 642.814 3486.49 491.908
internal_count=5049 4881 168 3084 150 1797 132 1520 277 683 183 258 55 77 1291 229 54 500 220 222 185 396 2401 132 1267 53 182 114 161 82 1216 170 104 1179 1185 144 234 79 945 79 58 866 312 98 81 84 57 163 1193 64 42 1172 209 63 45 213 139 109 88 44 186 802 74
is_linear=0
shrinkage=0.05


Tree=12
num_leaves=64
num_cat=0
split_feature=16 16 4 3 16 15 12 16 12 16 15 3 14 7 1 10 13 4 4 1 1 2 4 16 10 14 3 10 3 16 7 15 10 15 16 14 2 16 15 16 11 4 10 12 0 1 16 12 0 11 11 2 5 12 12 11 14 3 1 14 1 13 11
split_gain=0.00112813 0.000377417 0.00016558 0.000219798 0.000109807 9.30375e-05 6.75279e-05 4.82509e-05 4.72837e-05 7.37348e-05 4.19796e-05 4.14286e-05 4.04399e-05 6.95042e-05 3.25939e-05 2.82679e-05 2.73114e-05 2.49319e-05 1.87401e-05 1.74064e-05 1.66143e-05 1.45991e-05 1.41317e-05 1.30613e-05 1.27438e-05 1.21281e-05 1.23473e-05 1.15217e-05 1.04417e-05 1.0182e-05 8.36676e-06 7.9165e-06 7.45287e-06 7.14674e-06 9.25418e-06 6.99761e-06 6.95161e-06 6.82501e-06 6.38574e-06 6.34289e-06 5.50734e-06 5.33664e-06 5.73774e-06 4.95491e-06 6.63884e-06 4.54961e-06 4.47177e-06 3.95481e-06 3.77391e-06 3.40045e-06 3.32815e-06 3.94019e-06 3.22294e-06 4.20882e-06 3.18973e-06 5.22344e-06 3.09336e-06 3.04907e-06 2.88586e-06 3.80138e-06 4.4197e-06 2.80871e-06 2.43841e-06
threshold=1.8518199324607851 -0.078238133341073976 0.077757880091667189 6.8687057495117196 0.42201338708400732 -0.82106143236160267 1.2748512029647829 -1.372517943382263 3.2143523693084721 -2.5780957937240596 0.5211065709590913 1.7356383204460146 -0.0027587503427639599 1.0588023662567141 -2.4190047979354854 0.11451093479990961 -0.30065497756004328 0.17277078330516818 -0.29122394323348993 -0.52754309773445118 0.35849358141422277 0.99715161323547374 0.99044960737228405 1.2320906519889834 0.13340800255537036 0.011390797328203918 0.82032400369644176 0.24279294908046725 0.60805904865264904 -1.372517943382263 0.038291526958346374 0.91395083069801342 0.17992384731769565 1.7468048930168154 -1.8851420879364011 0.024276060983538631 0.83155998587608349 -0.69834855198860157 -1.0939668416976926 1.0249063968658449 0.13030324131250384 0.86599999666214 -0.41660562157630915 -0.16168385744094846 -1.3943895697593687 0.28697821497917181 0.67450374364852916 0.33536224067211157 -1.5320073962211607 -0.044815955683588975 -0.095756798982620225 0.8726281225681306 0.15896118432283404 -0.6727444827556609 0.75517737865448009 0.010602788999676706 0.011390797328203918 -0.053713891655206673 -0.66894775629043568 -0.024439563043415543 -0.98643070459365834 -0.32329325377941126 0.039891390129923827
decision_type=2 2 2 2 2 2 2 2 2 2 2 2 2 2 2 2 2 2 2 2 2 2 2 2 2 2 2 2 2 2 2 2 2 2 2 2 2 2 2 2 2 2 2 2 2 2 2 2 2 2 2 2 2 2 2 2 2 2 2 2 2 2 2
left_child=1 5 18 6 24 8 12 15 9 -1 19 32 -4 30 -9 25 17 20 -2 36 29 -18 28 46 38 49 33 37 52 -11 -14 47 -12 34 35 -27 58 40 -3 -34 50 43 -43 44 -39 56 -21 -26 -48 -7 -16 62 53 -19 55 -41 -25 -29 59 -6 -61 -49 -52
right_child=2 4 3 -5 10 7 -8 14 -10 16 11 -13 13 -15 27 -17 21 22 -20 23 -22 -23 -24 45 31 26 -28 57 -30 -31 -32 -33 39 -35 -36 -37 -38 41 -40 54 -42 42 -44 -45 -46 -47 48 61 -50 -51 51 -53 -54 -55 -56 -57 -58 -59 -60 60 -62 -63 -64
leaf_value=-4.8455273259279804e-05 1.8708268436408726e-05 -1.3285561970208301e-05 8.0530836604619595e-06 7.3873742314842301e-05 -2.2133844501988367e-06 -1.5772864416952887e-05 5.0499998497708769e-05 -2.713306606360473e-05 4.2407828562368641e-06 -1.3706086942236516e-05 4.5093559674030238e-06 4.098400469778336e-05 2.6522159969442763e-05 5.1151104558636162e-05 -2.069052230325873e-06 -7.6839563093086713e-07 -1.588069292251307e-05 -1.0522448654287984e-05 -2.0620646534891676e-06 2.2178332120863545e-06 -3.8429884443090239e-05 2.8127999080129834e-06 -2.945331363401107e-05 5.9829011741374406e-06 2.8163675996920408e-07 -3.163116795431009e-05 -3.1990731014597159e-05 -1.5214196693107692e-06 -2.414075688519657e-05 -2.8790273524979475e-05 1.175900423155775e-05 1.08943246414302e-05 1.0970805700056214e-05 -8.0174089261429352e-06 -1.4981411498088118e-05 -1.6897792147082949e-05 -8.3189343000967841e-06 -1.7113144728236157e-05 -2.0116808542462481e-06 2.1682996501004275e-05 -1.7637775715426105e-05 -6.0411801361326341e-06 -1.8123255670577441e-05 -3.0580048440056243e-06 -5.5265114210113445e-06 1.8694454118615336e-05 -4.1910566294105804e-07 1.5735028379713709e-06 8.7009672802134846e-06 -6.4776757440596827e-06 -7.9989373938803783e-06 -1.3362601636754076e-05 -1.5745914777662927e-05 4.8628812199737612e-07 2.5260614891949371e-05 9.1935665056283505e-06 1.538613999904859e-05 5.6236122065095727e-06 -4.1221040158334141e-06 2.5298054383364977e-06 1.5022418572892119e-05 8.4278288390915839e-06 -1.3557477212515723e-07
leaf_weight=223.69275283813477 203.62644958496094 128.68269991874695 260.00095272064209 413.1416015625 159.68995237350464 166.89890241622925 352.2405047416687 172.53849673271179 197.77404975891113 194.90689945220947 212.00475025177002 148.76355123519897 166.42620277404785 264.71430492401123 221.94624972343445 295.61575126647949 215.51465034484863 191.32565331459045 232.70670127868652 648.11285400390625 248.24145317077637 202.65749669075012 132.36270236968994 197.39330053329468 4731.0339359045029 212.70380115509033 190.02885150909424 369.23149633407593 124.52130055427551 262.60744953155518 226.69740295410156 200.29910135269165 515.03015398979187 150.31369924545288 421.16969990730286 129.7523500919342 219.19940090179443 142.24850082397461 5250.3405487537384 195.43325018882751 154.30000042915344 304.56160140037537 145.07105040550232 2763.3121590614319 944.45245432853699 277.89415264129639 130.08899807929993 342.23619782924652 885.87420511245728 239.70645427703857 696.65830063819885 330.4865927696228 98.951501131057739 158.95140337944031 141.44360065460205 146.45105195045471 157.04470252990723 250.69035053253174 142.91970062255859 183.80640172958374 115.15390038490295 265.32885038852692 114.84129977226257
leaf_count=23 30 16 16 16 19 19 25 24 14 17 29 13 21 23 24 22 34 26 17 147 33 15 17 23 1094 31 21 53 17 29 20 23 81 17 72 19 17 14 1169 29 21 52 27 627 225 38 14 65 146 28 133 39 29 23 19 18 22 35 18 30 20 34 17
internal_value=-1.33757e-14 -2.85286e-06 3.50791e-05 4.21944e-05 2.15599e-06 -1.00808e-05 3.18894e-05 -7.6657e-06 -1.91086e-05 -2.13572e-05 8.75101e-06 1.6084e-05 2.47472e-05 3.13453e-05 -5.68679e-06 -1.49082e-05 -1.80449e-05 -2.13691e-05 7.63096e-06 5.55375e-06 -2.80151e-05 -6.82132e-06 -1.47265e-05 7.78748e-06 -5.47945e-07 -1.76753e-05 -2.03942e-05 -5.11201e-06 -1.1329e-05 -2.23642e-05 1.80089e-05 1.13546e-06 1.30236e-05 -1.79831e-05 -1.99447e-05 -2.60489e-05 -6.9594e-07 -5.80248e-06 -2.28139e-06 1.48316e-05 -8.68443e-06 -4.78485e-06 -9.93938e-06 -4.18286e-06 -7.04319e-06 1.39047e-05 5.463e-06 7.6932e-07 7.53319e-06 -1.02931e-05 -7.67155e-06 -8.7604e-06 -7.77778e-06 -5.52682e-06 1.89456e-05 1.6333e-05 1.01493e-05 1.36796e-06 2.08172e-06 4.01489e-06 7.34173e-06 4.56685e-06 -6.88613e-06
internal_weight=28181.8 26062.3 2119.55 1683.22 15394.2 10668 1270.08 8416.53 2251.51 2053.73 4476.3 1359.13 917.839 657.838 6610.34 1806.19 1830.04 1411.87 436.333 3117.18 705.756 418.172 706.113 2296.41 10917.9 1510.57 1103.97 6437.8 573.75 457.514 393.124 5538.9 1210.36 913.94 763.626 342.456 820.769 5817.88 5379.02 998.358 1518.23 4299.65 449.633 3850.01 1086.7 632.332 1664.08 5338.6 1015.96 406.605 1363.93 1141.99 449.229 350.277 483.328 341.884 354.438 619.922 601.57 458.65 298.96 607.565 811.5
internal_count=5049 4881 168 121 3084 1797 105 1520 277 263 683 189 80 64 1291 229 240 191 47 494 79 49 112 390 2401 207 160 1267 95 46 41 1216 176 139 122 50 104 1179 1185 147 234 945 79 866 239 83 307 1193 160 47 213 189 78 49 66 47 45 88 87 69 50 99 150
is_linear=0
shrinkage=0.05


Tree=13
num_leaves=64
num_cat=0
split_feature=16 16 15 12 16 15 15 2 12 16 16 15 5 1 13 2 15 1 10 2 3 14 6 3 6 14 11 16 15 16 15 1 15 4 16 2 2 12 1 16 10 16 0 11 12 0 13 16 16 1 14 15 16 4 1 7 0 10 15 16 0 10 0
split_gain=0.0010187 0.000313976 0.000176261 0.000104682 9.27173e-05 6.96298e-05 6.80118e-05 4.79977e-05 4.4495e-05 6.40097e-05 3.55801e-05 3.54213e-05 2.6781e-05 2.40224e-05 2.19578e-05 2.12135e-05 2.00465e-05 1.77596e-05 1.65965e-05 1.63398e-05 1.45578e-05 1.38224e-05 1.36831e-05 1.34008e-05 1.33937e-05 1.25955e-05 9.54579e-06 9.34159e-06 9.08343e-06 8.91976e-06 8.72496e-06 8.54921e-06 7.87321e-06 9.60011e-06 7.22212e-06 7.1699e-06 6.91713e-06 6.73405e-06 6.63136e-06 6.22481e-06 6.07401e-06 5.458e-06 5.2882e-06 4.8527e-06 4.78197e-06 4.34799e-06 6.96706e-06 4.48002e-06 3.87606e-06 3.86322e-06 3.76253e-06 4.52629e-06 3.72189e-06 8.04662e-06 3.66222e-06 3.55961e-06 8.44904e-06 3.47584e-06 3.4499e-06 3.35976e-06 4.2809e-06 3.83642e-06 5.79642e-06
threshold=1.546548664569855 -0.23438487946987149 3.3514950275421147 2.7994054555892949 0.42201338708400732 -0.82106143236160267 0.26911726593971258 1.1098708510398867 3.2143523693084721 -2.5780957937240596 -1.372517943382263 1.9509314894676211 -1.5716765522956846 -1.0831698775291441 -0.30065497756004328 0.51472687721252453 -0.34258337318897242 -4.196622133255004 0.10251856222748758 0.99715161323547374 0.62250825762748729 -0.01955801714211702 -1.5721628069877622 0.82032400369644176 0.042577587068080909 0.0609487071633339 -0.044815955683588975 -2.9889016151428218 0.66907998919487011 0.96158272027969371 -2.534126758575439 -0.24613620340824124 0.38460931181907659 -0.18806898593902585 0.59850645065307628 2.9563021659851079 3.9221712350845341 0.33536224067211157 0.33621661365032202 -1.1332865953445432 0.20354518294334414 -0.77515015006065358 0.54354697465896618 -0.15415994822978971 -1.1402348279953001 0.65444290637969982 -0.15241260081529615 1.2597665190696719 0.17455963045358661 1.2166165113449099 -0.023597004823386666 1.1481595039367678 1.2320906519889834 0.2580100297927857 -0.79673880338668812 0.19571019709110263 -0.28519931435585016 0.11451093479990961 1.7468048930168154 1.0000000180025095e-35 -1.5199534296989439 -0.88467144966125477 0.20546109974384311
decision_type=2 2 2 2 2 2 2 2 2 2 2 2 2 2 2 2 2 2 2 2 2 2 2 2 2 2 2 2 2 2 2 2 2 2 2 2 2 2 2 2 2 2 2 2 2 2 2 2 2 2 2 2 2 2 2 2 2 2 2 2 2 2 2
left_child=1 5 3 6 17 8 13 25 9 -1 12 16 -7 -2 15 20 22 -3 36 -16 30 -14 -6 31 -17 -8 -24 -23 35 50 -11 -15 42 58 -28 41 44 48 -25 -30 -36 54 -29 -39 -19 46 47 -31 -20 -50 -18 -52 53 -42 -12 56 -32 -41 -34 60 -46 62 -61
right_child=2 4 -4 -5 11 10 7 -9 -10 14 28 -13 21 23 19 24 29 18 37 -21 -22 27 26 38 -26 -27 34 32 39 45 55 -33 33 -35 40 -37 -38 43 -40 57 52 -43 -44 -45 59 -47 -48 -49 49 -51 51 -53 -54 -55 -56 -57 -58 -59 -60 61 -62 -63 -64
